digraph Tree {
node [shape=box, fontname="helvetica"] ;
edge [fontname="helvetica"] ;
0 [label="X[48] <= 521.5\ngini = 0.207\nsamples = 45211\nvalue = [39922, 5289]"] ;
1 [label="X[42] <= 0.5\ngini = 0.142\nsamples = 40238\nvalue = [37132, 3106]"] ;
0 -> 1 [labeldistance=2.5, labelangle=45, headlabel="True"] ;
2 [label="X[48] <= 206.5\ngini = 0.111\nsamples = 38941\nvalue = [36640, 2301]"] ;
1 -> 2 ;
3 [label="X[35] <= 0.5\ngini = 0.054\nsamples = 24953\nvalue = [24261, 692]"] ;
2 -> 3 ;
4 [label="X[38] <= 0.5\ngini = 0.048\nsamples = 24712\nvalue = [24104, 608]"] ;
3 -> 4 ;
5 [label="X[44] <= 60.5\ngini = 0.043\nsamples = 24388\nvalue = [23855, 533]"] ;
4 -> 5 ;
6 [label="X[28] <= 0.5\ngini = 0.039\nsamples = 24037\nvalue = [23561, 476]"] ;
5 -> 6 ;
7 [label="X[39] <= 0.5\ngini = 0.032\nsamples = 22803\nvalue = [22427, 376]"] ;
6 -> 7 ;
8 [label="X[31] <= 0.5\ngini = 0.03\nsamples = 22630\nvalue = [22281, 349]"] ;
7 -> 8 ;
9 [label="X[48] <= 142.5\ngini = 0.024\nsamples = 21201\nvalue = [20943, 258]"] ;
8 -> 9 ;
10 [label="X[44] <= 25.5\ngini = 0.011\nsamples = 14649\nvalue = [14565, 84]"] ;
9 -> 10 ;
11 [label="X[32] <= 0.5\ngini = 0.083\nsamples = 346\nvalue = [331, 15]"] ;
10 -> 11 ;
12 [label="X[22] <= 0.5\ngini = 0.078\nsamples = 345\nvalue = [331, 14]"] ;
11 -> 12 ;
13 [label="X[48] <= 99.5\ngini = 0.173\nsamples = 136\nvalue = [123, 13]"] ;
12 -> 13 ;
14 [label="X[10] <= 0.5\ngini = 0.056\nsamples = 70\nvalue = [68, 2]"] ;
13 -> 14 ;
15 [label="X[7] <= 0.5\ngini = 0.029\nsamples = 67\nvalue = [66, 1]"] ;
14 -> 15 ;
16 [label="gini = 0.0\nsamples = 61\nvalue = [61, 0]"] ;
15 -> 16 ;
17 [label="X[34] <= 0.5\ngini = 0.278\nsamples = 6\nvalue = [5, 1]"] ;
15 -> 17 ;
18 [label="gini = 0.0\nsamples = 5\nvalue = [5, 0]"] ;
17 -> 18 ;
19 [label="gini = 0.0\nsamples = 1\nvalue = [0, 1]"] ;
17 -> 19 ;
20 [label="X[44] <= 23.5\ngini = 0.444\nsamples = 3\nvalue = [2, 1]"] ;
14 -> 20 ;
21 [label="gini = 0.0\nsamples = 1\nvalue = [0, 1]"] ;
20 -> 21 ;
22 [label="gini = 0.0\nsamples = 2\nvalue = [2, 0]"] ;
20 -> 22 ;
23 [label="X[46] <= 360.5\ngini = 0.278\nsamples = 66\nvalue = [55, 11]"] ;
13 -> 23 ;
24 [label="X[47] <= 8.5\ngini = 0.404\nsamples = 32\nvalue = [23, 9]"] ;
23 -> 24 ;
25 [label="gini = 0.0\nsamples = 12\nvalue = [12, 0]"] ;
24 -> 25 ;
26 [label="X[48] <= 115.0\ngini = 0.495\nsamples = 20\nvalue = [11, 9]"] ;
24 -> 26 ;
27 [label="X[48] <= 100.5\ngini = 0.397\nsamples = 11\nvalue = [8, 3]"] ;
26 -> 27 ;
28 [label="gini = 0.0\nsamples = 2\nvalue = [0, 2]"] ;
27 -> 28 ;
29 [label="X[47] <= 10.5\ngini = 0.198\nsamples = 9\nvalue = [8, 1]"] ;
27 -> 29 ;
30 [label="gini = 0.0\nsamples = 1\nvalue = [0, 1]"] ;
29 -> 30 ;
31 [label="gini = 0.0\nsamples = 8\nvalue = [8, 0]"] ;
29 -> 31 ;
32 [label="X[16] <= 0.5\ngini = 0.444\nsamples = 9\nvalue = [3, 6]"] ;
26 -> 32 ;
33 [label="gini = 0.0\nsamples = 5\nvalue = [0, 5]"] ;
32 -> 33 ;
34 [label="X[29] <= 0.5\ngini = 0.375\nsamples = 4\nvalue = [3, 1]"] ;
32 -> 34 ;
35 [label="gini = 0.0\nsamples = 3\nvalue = [3, 0]"] ;
34 -> 35 ;
36 [label="gini = 0.0\nsamples = 1\nvalue = [0, 1]"] ;
34 -> 36 ;
37 [label="X[10] <= 0.5\ngini = 0.111\nsamples = 34\nvalue = [32, 2]"] ;
23 -> 37 ;
38 [label="X[0] <= 0.5\ngini = 0.061\nsamples = 32\nvalue = [31, 1]"] ;
37 -> 38 ;
39 [label="gini = 0.0\nsamples = 29\nvalue = [29, 0]"] ;
38 -> 39 ;
40 [label="X[48] <= 135.5\ngini = 0.444\nsamples = 3\nvalue = [2, 1]"] ;
38 -> 40 ;
41 [label="gini = 0.0\nsamples = 2\nvalue = [2, 0]"] ;
40 -> 41 ;
42 [label="gini = 0.0\nsamples = 1\nvalue = [0, 1]"] ;
40 -> 42 ;
43 [label="X[50] <= 46.0\ngini = 0.5\nsamples = 2\nvalue = [1, 1]"] ;
37 -> 43 ;
44 [label="gini = 0.0\nsamples = 1\nvalue = [1, 0]"] ;
43 -> 44 ;
45 [label="gini = 0.0\nsamples = 1\nvalue = [0, 1]"] ;
43 -> 45 ;
46 [label="X[0] <= 0.5\ngini = 0.01\nsamples = 209\nvalue = [208, 1]"] ;
12 -> 46 ;
47 [label="gini = 0.0\nsamples = 178\nvalue = [178, 0]"] ;
46 -> 47 ;
48 [label="X[17] <= 0.5\ngini = 0.062\nsamples = 31\nvalue = [30, 1]"] ;
46 -> 48 ;
49 [label="gini = 0.0\nsamples = 28\nvalue = [28, 0]"] ;
48 -> 49 ;
50 [label="X[48] <= 130.5\ngini = 0.444\nsamples = 3\nvalue = [2, 1]"] ;
48 -> 50 ;
51 [label="gini = 0.0\nsamples = 1\nvalue = [0, 1]"] ;
50 -> 51 ;
52 [label="gini = 0.0\nsamples = 2\nvalue = [2, 0]"] ;
50 -> 52 ;
53 [label="gini = 0.0\nsamples = 1\nvalue = [0, 1]"] ;
11 -> 53 ;
54 [label="X[50] <= 390.5\ngini = 0.01\nsamples = 14303\nvalue = [14234, 69]"] ;
10 -> 54 ;
55 [label="X[47] <= 1.5\ngini = 0.009\nsamples = 14272\nvalue = [14207, 65]"] ;
54 -> 55 ;
56 [label="X[51] <= 5.5\ngini = 0.142\nsamples = 52\nvalue = [48, 4]"] ;
55 -> 56 ;
57 [label="X[46] <= 1451.5\ngini = 0.111\nsamples = 51\nvalue = [48, 3]"] ;
56 -> 57 ;
58 [label="gini = 0.0\nsamples = 38\nvalue = [38, 0]"] ;
57 -> 58 ;
59 [label="X[45] <= 55.0\ngini = 0.355\nsamples = 13\nvalue = [10, 3]"] ;
57 -> 59 ;
60 [label="gini = 0.0\nsamples = 1\nvalue = [0, 1]"] ;
59 -> 60 ;
61 [label="X[50] <= 39.5\ngini = 0.278\nsamples = 12\nvalue = [10, 2]"] ;
59 -> 61 ;
62 [label="X[17] <= 0.5\ngini = 0.444\nsamples = 6\nvalue = [4, 2]"] ;
61 -> 62 ;
63 [label="X[9] <= 0.5\ngini = 0.32\nsamples = 5\nvalue = [4, 1]"] ;
62 -> 63 ;
64 [label="gini = 0.0\nsamples = 4\nvalue = [4, 0]"] ;
63 -> 64 ;
65 [label="gini = 0.0\nsamples = 1\nvalue = [0, 1]"] ;
63 -> 65 ;
66 [label="gini = 0.0\nsamples = 1\nvalue = [0, 1]"] ;
62 -> 66 ;
67 [label="gini = 0.0\nsamples = 6\nvalue = [6, 0]"] ;
61 -> 67 ;
68 [label="gini = 0.0\nsamples = 1\nvalue = [0, 1]"] ;
56 -> 68 ;
69 [label="X[47] <= 4.5\ngini = 0.009\nsamples = 14220\nvalue = [14159, 61]"] ;
55 -> 69 ;
70 [label="X[25] <= 0.5\ngini = 0.036\nsamples = 704\nvalue = [691, 13]"] ;
69 -> 70 ;
71 [label="gini = 0.0\nsamples = 470\nvalue = [470, 0]"] ;
70 -> 71 ;
72 [label="X[48] <= 138.5\ngini = 0.105\nsamples = 234\nvalue = [221, 13]"] ;
70 -> 72 ;
73 [label="X[8] <= 0.5\ngini = 0.091\nsamples = 229\nvalue = [218, 11]"] ;
72 -> 73 ;
74 [label="X[50] <= 175.5\ngini = 0.078\nsamples = 221\nvalue = [212, 9]"] ;
73 -> 74 ;
75 [label="X[34] <= 0.5\ngini = 0.064\nsamples = 211\nvalue = [204, 7]"] ;
74 -> 75 ;
76 [label="X[47] <= 3.5\ngini = 0.028\nsamples = 142\nvalue = [140, 2]"] ;
75 -> 76 ;
77 [label="X[51] <= 2.5\ngini = 0.219\nsamples = 16\nvalue = [14, 2]"] ;
76 -> 77 ;
78 [label="X[22] <= 0.5\ngini = 0.124\nsamples = 15\nvalue = [14, 1]"] ;
77 -> 78 ;
79 [label="gini = 0.0\nsamples = 10\nvalue = [10, 0]"] ;
78 -> 79 ;
80 [label="X[49] <= 1.5\ngini = 0.32\nsamples = 5\nvalue = [4, 1]"] ;
78 -> 80 ;
81 [label="gini = 0.0\nsamples = 1\nvalue = [0, 1]"] ;
80 -> 81 ;
82 [label="gini = 0.0\nsamples = 4\nvalue = [4, 0]"] ;
80 -> 82 ;
83 [label="gini = 0.0\nsamples = 1\nvalue = [0, 1]"] ;
77 -> 83 ;
84 [label="gini = 0.0\nsamples = 126\nvalue = [126, 0]"] ;
76 -> 84 ;
85 [label="X[0] <= 0.5\ngini = 0.134\nsamples = 69\nvalue = [64, 5]"] ;
75 -> 85 ;
86 [label="X[49] <= 3.5\ngini = 0.068\nsamples = 57\nvalue = [55, 2]"] ;
85 -> 86 ;
87 [label="X[9] <= 0.5\ngini = 0.036\nsamples = 55\nvalue = [54, 1]"] ;
86 -> 87 ;
88 [label="gini = 0.0\nsamples = 45\nvalue = [45, 0]"] ;
87 -> 88 ;
89 [label="X[48] <= 115.0\ngini = 0.18\nsamples = 10\nvalue = [9, 1]"] ;
87 -> 89 ;
90 [label="gini = 0.0\nsamples = 9\nvalue = [9, 0]"] ;
89 -> 90 ;
91 [label="gini = 0.0\nsamples = 1\nvalue = [0, 1]"] ;
89 -> 91 ;
92 [label="X[48] <= 111.5\ngini = 0.5\nsamples = 2\nvalue = [1, 1]"] ;
86 -> 92 ;
93 [label="gini = 0.0\nsamples = 1\nvalue = [1, 0]"] ;
92 -> 93 ;
94 [label="gini = 0.0\nsamples = 1\nvalue = [0, 1]"] ;
92 -> 94 ;
95 [label="X[14] <= 0.5\ngini = 0.375\nsamples = 12\nvalue = [9, 3]"] ;
85 -> 95 ;
96 [label="X[48] <= 82.0\ngini = 0.375\nsamples = 4\nvalue = [1, 3]"] ;
95 -> 96 ;
97 [label="gini = 0.0\nsamples = 1\nvalue = [1, 0]"] ;
96 -> 97 ;
98 [label="gini = 0.0\nsamples = 3\nvalue = [0, 3]"] ;
96 -> 98 ;
99 [label="gini = 0.0\nsamples = 8\nvalue = [8, 0]"] ;
95 -> 99 ;
100 [label="X[44] <= 46.5\ngini = 0.32\nsamples = 10\nvalue = [8, 2]"] ;
74 -> 100 ;
101 [label="X[34] <= 0.5\ngini = 0.198\nsamples = 9\nvalue = [8, 1]"] ;
100 -> 101 ;
102 [label="gini = 0.0\nsamples = 8\nvalue = [8, 0]"] ;
101 -> 102 ;
103 [label="gini = 0.0\nsamples = 1\nvalue = [0, 1]"] ;
101 -> 103 ;
104 [label="gini = 0.0\nsamples = 1\nvalue = [0, 1]"] ;
100 -> 104 ;
105 [label="X[45] <= 10.0\ngini = 0.375\nsamples = 8\nvalue = [6, 2]"] ;
73 -> 105 ;
106 [label="X[48] <= 127.0\ngini = 0.444\nsamples = 3\nvalue = [1, 2]"] ;
105 -> 106 ;
107 [label="gini = 0.0\nsamples = 2\nvalue = [0, 2]"] ;
106 -> 107 ;
108 [label="gini = 0.0\nsamples = 1\nvalue = [1, 0]"] ;
106 -> 108 ;
109 [label="gini = 0.0\nsamples = 5\nvalue = [5, 0]"] ;
105 -> 109 ;
110 [label="X[16] <= 0.5\ngini = 0.48\nsamples = 5\nvalue = [3, 2]"] ;
72 -> 110 ;
111 [label="X[46] <= 120.5\ngini = 0.444\nsamples = 3\nvalue = [1, 2]"] ;
110 -> 111 ;
112 [label="gini = 0.0\nsamples = 1\nvalue = [1, 0]"] ;
111 -> 112 ;
113 [label="gini = 0.0\nsamples = 2\nvalue = [0, 2]"] ;
111 -> 113 ;
114 [label="gini = 0.0\nsamples = 2\nvalue = [2, 0]"] ;
110 -> 114 ;
115 [label="X[30] <= 0.5\ngini = 0.007\nsamples = 13516\nvalue = [13468, 48]"] ;
69 -> 115 ;
116 [label="X[51] <= 1.5\ngini = 0.007\nsamples = 13492\nvalue = [13446, 46]"] ;
115 -> 116 ;
117 [label="X[45] <= 10.0\ngini = 0.005\nsamples = 12467\nvalue = [12434, 33]"] ;
116 -> 117 ;
118 [label="X[22] <= 0.5\ngini = 0.021\nsamples = 833\nvalue = [824, 9]"] ;
117 -> 118 ;
119 [label="X[34] <= 0.5\ngini = 0.055\nsamples = 285\nvalue = [277, 8]"] ;
118 -> 119 ;
120 [label="X[48] <= 118.5\ngini = 0.036\nsamples = 269\nvalue = [264, 5]"] ;
119 -> 120 ;
121 [label="X[48] <= 23.5\ngini = 0.01\nsamples = 207\nvalue = [206, 1]"] ;
120 -> 121 ;
122 [label="X[48] <= 22.5\ngini = 0.074\nsamples = 26\nvalue = [25, 1]"] ;
121 -> 122 ;
123 [label="gini = 0.0\nsamples = 25\nvalue = [25, 0]"] ;
122 -> 123 ;
124 [label="gini = 0.0\nsamples = 1\nvalue = [0, 1]"] ;
122 -> 124 ;
125 [label="gini = 0.0\nsamples = 181\nvalue = [181, 0]"] ;
121 -> 125 ;
126 [label="X[47] <= 6.0\ngini = 0.121\nsamples = 62\nvalue = [58, 4]"] ;
120 -> 126 ;
127 [label="gini = 0.0\nsamples = 1\nvalue = [0, 1]"] ;
126 -> 127 ;
128 [label="X[48] <= 125.5\ngini = 0.094\nsamples = 61\nvalue = [58, 3]"] ;
126 -> 128 ;
129 [label="X[46] <= 448.5\ngini = 0.278\nsamples = 18\nvalue = [15, 3]"] ;
128 -> 129 ;
130 [label="gini = 0.0\nsamples = 10\nvalue = [10, 0]"] ;
129 -> 130 ;
131 [label="X[49] <= 1.5\ngini = 0.469\nsamples = 8\nvalue = [5, 3]"] ;
129 -> 131 ;
132 [label="X[8] <= 0.5\ngini = 0.375\nsamples = 4\nvalue = [1, 3]"] ;
131 -> 132 ;
133 [label="gini = 0.0\nsamples = 3\nvalue = [0, 3]"] ;
132 -> 133 ;
134 [label="gini = 0.0\nsamples = 1\nvalue = [1, 0]"] ;
132 -> 134 ;
135 [label="gini = 0.0\nsamples = 4\nvalue = [4, 0]"] ;
131 -> 135 ;
136 [label="gini = 0.0\nsamples = 43\nvalue = [43, 0]"] ;
128 -> 136 ;
137 [label="X[4] <= 0.5\ngini = 0.305\nsamples = 16\nvalue = [13, 3]"] ;
119 -> 137 ;
138 [label="X[0] <= 0.5\ngini = 0.142\nsamples = 13\nvalue = [12, 1]"] ;
137 -> 138 ;
139 [label="gini = 0.0\nsamples = 9\nvalue = [9, 0]"] ;
138 -> 139 ;
140 [label="X[16] <= 0.5\ngini = 0.375\nsamples = 4\nvalue = [3, 1]"] ;
138 -> 140 ;
141 [label="gini = 0.0\nsamples = 1\nvalue = [0, 1]"] ;
140 -> 141 ;
142 [label="gini = 0.0\nsamples = 3\nvalue = [3, 0]"] ;
140 -> 142 ;
143 [label="X[48] <= 104.0\ngini = 0.444\nsamples = 3\nvalue = [1, 2]"] ;
137 -> 143 ;
144 [label="gini = 0.0\nsamples = 1\nvalue = [1, 0]"] ;
143 -> 144 ;
145 [label="gini = 0.0\nsamples = 2\nvalue = [0, 2]"] ;
143 -> 145 ;
146 [label="X[41] <= 0.5\ngini = 0.004\nsamples = 548\nvalue = [547, 1]"] ;
118 -> 146 ;
147 [label="gini = 0.0\nsamples = 538\nvalue = [538, 0]"] ;
146 -> 147 ;
148 [label="X[27] <= 0.5\ngini = 0.18\nsamples = 10\nvalue = [9, 1]"] ;
146 -> 148 ;
149 [label="gini = 0.0\nsamples = 9\nvalue = [9, 0]"] ;
148 -> 149 ;
150 [label="gini = 0.0\nsamples = 1\nvalue = [0, 1]"] ;
148 -> 150 ;
151 [label="X[46] <= 6573.5\ngini = 0.004\nsamples = 11634\nvalue = [11610, 24]"] ;
117 -> 151 ;
152 [label="X[10] <= 0.5\ngini = 0.003\nsamples = 11171\nvalue = [11152, 19]"] ;
151 -> 152 ;
153 [label="X[46] <= 150.5\ngini = 0.003\nsamples = 10925\nvalue = [10909, 16]"] ;
152 -> 153 ;
154 [label="gini = 0.0\nsamples = 4035\nvalue = [4035, 0]"] ;
153 -> 154 ;
155 [label="X[46] <= 151.5\ngini = 0.005\nsamples = 6890\nvalue = [6874, 16]"] ;
153 -> 155 ;
156 [label="X[33] <= 0.5\ngini = 0.142\nsamples = 13\nvalue = [12, 1]"] ;
155 -> 156 ;
157 [label="gini = 0.0\nsamples = 10\nvalue = [10, 0]"] ;
156 -> 157 ;
158 [label="X[12] <= 0.5\ngini = 0.444\nsamples = 3\nvalue = [2, 1]"] ;
156 -> 158 ;
159 [label="gini = 0.0\nsamples = 1\nvalue = [0, 1]"] ;
158 -> 159 ;
160 [label="gini = 0.0\nsamples = 2\nvalue = [2, 0]"] ;
158 -> 160 ;
161 [label="X[44] <= 34.5\ngini = 0.004\nsamples = 6877\nvalue = [6862, 15]"] ;
155 -> 161 ;
162 [label="X[34] <= 0.5\ngini = 0.01\nsamples = 1443\nvalue = [1436, 7]"] ;
161 -> 162 ;
163 [label="X[18] <= 0.5\ngini = 0.007\nsamples = 1369\nvalue = [1364, 5]"] ;
162 -> 163 ;
164 [label="X[47] <= 30.5\ngini = 0.006\nsamples = 1348\nvalue = [1344, 4]"] ;
163 -> 164 ;
165 [label="X[37] <= 0.5\ngini = 0.005\nsamples = 1326\nvalue = [1323, 3]"] ;
164 -> 165 ;
166 [label="X[46] <= 197.5\ngini = 0.002\nsamples = 1116\nvalue = [1115, 1]"] ;
165 -> 166 ;
167 [label="X[46] <= 196.5\ngini = 0.02\nsamples = 101\nvalue = [100, 1]"] ;
166 -> 167 ;
168 [label="gini = 0.0\nsamples = 100\nvalue = [100, 0]"] ;
167 -> 168 ;
169 [label="gini = 0.0\nsamples = 1\nvalue = [0, 1]"] ;
167 -> 169 ;
170 [label="gini = 0.0\nsamples = 1015\nvalue = [1015, 0]"] ;
166 -> 170 ;
171 [label="X[47] <= 15.5\ngini = 0.019\nsamples = 210\nvalue = [208, 2]"] ;
165 -> 171 ;
172 [label="X[1] <= 0.5\ngini = 0.346\nsamples = 9\nvalue = [7, 2]"] ;
171 -> 172 ;
173 [label="gini = 0.0\nsamples = 7\nvalue = [7, 0]"] ;
172 -> 173 ;
174 [label="gini = 0.0\nsamples = 2\nvalue = [0, 2]"] ;
172 -> 174 ;
175 [label="gini = 0.0\nsamples = 201\nvalue = [201, 0]"] ;
171 -> 175 ;
176 [label="X[27] <= 0.5\ngini = 0.087\nsamples = 22\nvalue = [21, 1]"] ;
164 -> 176 ;
177 [label="gini = 0.0\nsamples = 20\nvalue = [20, 0]"] ;
176 -> 177 ;
178 [label="X[46] <= 1125.5\ngini = 0.5\nsamples = 2\nvalue = [1, 1]"] ;
176 -> 178 ;
179 [label="gini = 0.0\nsamples = 1\nvalue = [0, 1]"] ;
178 -> 179 ;
180 [label="gini = 0.0\nsamples = 1\nvalue = [1, 0]"] ;
178 -> 180 ;
181 [label="X[7] <= 0.5\ngini = 0.091\nsamples = 21\nvalue = [20, 1]"] ;
163 -> 181 ;
182 [label="gini = 0.0\nsamples = 18\nvalue = [18, 0]"] ;
181 -> 182 ;
183 [label="X[33] <= 0.5\ngini = 0.444\nsamples = 3\nvalue = [2, 1]"] ;
181 -> 183 ;
184 [label="gini = 0.0\nsamples = 1\nvalue = [0, 1]"] ;
183 -> 184 ;
185 [label="gini = 0.0\nsamples = 2\nvalue = [2, 0]"] ;
183 -> 185 ;
186 [label="X[25] <= 0.5\ngini = 0.053\nsamples = 74\nvalue = [72, 2]"] ;
162 -> 186 ;
187 [label="gini = 0.0\nsamples = 61\nvalue = [61, 0]"] ;
186 -> 187 ;
188 [label="X[4] <= 0.5\ngini = 0.26\nsamples = 13\nvalue = [11, 2]"] ;
186 -> 188 ;
189 [label="X[49] <= 2.5\ngini = 0.165\nsamples = 11\nvalue = [10, 1]"] ;
188 -> 189 ;
190 [label="gini = 0.0\nsamples = 9\nvalue = [9, 0]"] ;
189 -> 190 ;
191 [label="X[44] <= 30.5\ngini = 0.5\nsamples = 2\nvalue = [1, 1]"] ;
189 -> 191 ;
192 [label="gini = 0.0\nsamples = 1\nvalue = [1, 0]"] ;
191 -> 192 ;
193 [label="gini = 0.0\nsamples = 1\nvalue = [0, 1]"] ;
191 -> 193 ;
194 [label="X[46] <= 480.0\ngini = 0.5\nsamples = 2\nvalue = [1, 1]"] ;
188 -> 194 ;
195 [label="gini = 0.0\nsamples = 1\nvalue = [1, 0]"] ;
194 -> 195 ;
196 [label="gini = 0.0\nsamples = 1\nvalue = [0, 1]"] ;
194 -> 196 ;
197 [label="X[46] <= 196.5\ngini = 0.003\nsamples = 5434\nvalue = [5426, 8]"] ;
161 -> 197 ;
198 [label="X[46] <= 195.5\ngini = 0.015\nsamples = 264\nvalue = [262, 2]"] ;
197 -> 198 ;
199 [label="X[26] <= 0.5\ngini = 0.008\nsamples = 256\nvalue = [255, 1]"] ;
198 -> 199 ;
200 [label="gini = 0.0\nsamples = 243\nvalue = [243, 0]"] ;
199 -> 200 ;
201 [label="X[47] <= 10.5\ngini = 0.142\nsamples = 13\nvalue = [12, 1]"] ;
199 -> 201 ;
202 [label="X[46] <= 170.0\ngini = 0.5\nsamples = 2\nvalue = [1, 1]"] ;
201 -> 202 ;
203 [label="gini = 0.0\nsamples = 1\nvalue = [1, 0]"] ;
202 -> 203 ;
204 [label="gini = 0.0\nsamples = 1\nvalue = [0, 1]"] ;
202 -> 204 ;
205 [label="gini = 0.0\nsamples = 11\nvalue = [11, 0]"] ;
201 -> 205 ;
206 [label="X[29] <= 0.5\ngini = 0.219\nsamples = 8\nvalue = [7, 1]"] ;
198 -> 206 ;
207 [label="gini = 0.0\nsamples = 7\nvalue = [7, 0]"] ;
206 -> 207 ;
208 [label="gini = 0.0\nsamples = 1\nvalue = [0, 1]"] ;
206 -> 208 ;
209 [label="X[0] <= 0.5\ngini = 0.002\nsamples = 5170\nvalue = [5164, 6]"] ;
197 -> 209 ;
210 [label="X[32] <= 0.5\ngini = 0.001\nsamples = 4618\nvalue = [4615, 3]"] ;
209 -> 210 ;
211 [label="X[44] <= 58.5\ngini = 0.001\nsamples = 4502\nvalue = [4500, 2]"] ;
210 -> 211 ;
212 [label="X[46] <= 2668.5\ngini = 0.0\nsamples = 4284\nvalue = [4283, 1]"] ;
211 -> 212 ;
213 [label="gini = 0.0\nsamples = 3537\nvalue = [3537, 0]"] ;
212 -> 213 ;
214 [label="X[46] <= 2671.5\ngini = 0.003\nsamples = 747\nvalue = [746, 1]"] ;
212 -> 214 ;
215 [label="gini = 0.0\nsamples = 1\nvalue = [0, 1]"] ;
214 -> 215 ;
216 [label="gini = 0.0\nsamples = 746\nvalue = [746, 0]"] ;
214 -> 216 ;
217 [label="X[48] <= 124.5\ngini = 0.009\nsamples = 218\nvalue = [217, 1]"] ;
211 -> 217 ;
218 [label="gini = 0.0\nsamples = 185\nvalue = [185, 0]"] ;
217 -> 218 ;
219 [label="X[48] <= 125.5\ngini = 0.059\nsamples = 33\nvalue = [32, 1]"] ;
217 -> 219 ;
220 [label="X[33] <= 0.5\ngini = 0.444\nsamples = 3\nvalue = [2, 1]"] ;
219 -> 220 ;
221 [label="gini = 0.0\nsamples = 2\nvalue = [2, 0]"] ;
220 -> 221 ;
222 [label="gini = 0.0\nsamples = 1\nvalue = [0, 1]"] ;
220 -> 222 ;
223 [label="gini = 0.0\nsamples = 30\nvalue = [30, 0]"] ;
219 -> 223 ;
224 [label="X[46] <= 3912.0\ngini = 0.017\nsamples = 116\nvalue = [115, 1]"] ;
210 -> 224 ;
225 [label="gini = 0.0\nsamples = 111\nvalue = [111, 0]"] ;
224 -> 225 ;
226 [label="X[44] <= 36.5\ngini = 0.32\nsamples = 5\nvalue = [4, 1]"] ;
224 -> 226 ;
227 [label="gini = 0.0\nsamples = 1\nvalue = [0, 1]"] ;
226 -> 227 ;
228 [label="gini = 0.0\nsamples = 4\nvalue = [4, 0]"] ;
226 -> 228 ;
229 [label="X[27] <= 0.5\ngini = 0.011\nsamples = 552\nvalue = [549, 3]"] ;
209 -> 229 ;
230 [label="gini = 0.0\nsamples = 342\nvalue = [342, 0]"] ;
229 -> 230 ;
231 [label="X[37] <= 0.5\ngini = 0.028\nsamples = 210\nvalue = [207, 3]"] ;
229 -> 231 ;
232 [label="X[33] <= 0.5\ngini = 0.019\nsamples = 209\nvalue = [207, 2]"] ;
231 -> 232 ;
233 [label="X[46] <= 296.0\ngini = 0.01\nsamples = 207\nvalue = [206, 1]"] ;
232 -> 233 ;
234 [label="X[46] <= 293.5\ngini = 0.083\nsamples = 23\nvalue = [22, 1]"] ;
233 -> 234 ;
235 [label="gini = 0.0\nsamples = 22\nvalue = [22, 0]"] ;
234 -> 235 ;
236 [label="gini = 0.0\nsamples = 1\nvalue = [0, 1]"] ;
234 -> 236 ;
237 [label="gini = 0.0\nsamples = 184\nvalue = [184, 0]"] ;
233 -> 237 ;
238 [label="X[46] <= 555.5\ngini = 0.5\nsamples = 2\nvalue = [1, 1]"] ;
232 -> 238 ;
239 [label="gini = 0.0\nsamples = 1\nvalue = [1, 0]"] ;
238 -> 239 ;
240 [label="gini = 0.0\nsamples = 1\nvalue = [0, 1]"] ;
238 -> 240 ;
241 [label="gini = 0.0\nsamples = 1\nvalue = [0, 1]"] ;
231 -> 241 ;
242 [label="X[50] <= 260.0\ngini = 0.024\nsamples = 246\nvalue = [243, 3]"] ;
152 -> 242 ;
243 [label="X[48] <= 139.5\ngini = 0.016\nsamples = 242\nvalue = [240, 2]"] ;
242 -> 243 ;
244 [label="X[47] <= 7.5\ngini = 0.008\nsamples = 235\nvalue = [234, 1]"] ;
243 -> 244 ;
245 [label="X[32] <= 0.5\ngini = 0.077\nsamples = 25\nvalue = [24, 1]"] ;
244 -> 245 ;
246 [label="gini = 0.0\nsamples = 24\nvalue = [24, 0]"] ;
245 -> 246 ;
247 [label="gini = 0.0\nsamples = 1\nvalue = [0, 1]"] ;
245 -> 247 ;
248 [label="gini = 0.0\nsamples = 210\nvalue = [210, 0]"] ;
244 -> 248 ;
249 [label="X[49] <= 1.5\ngini = 0.245\nsamples = 7\nvalue = [6, 1]"] ;
243 -> 249 ;
250 [label="X[48] <= 140.5\ngini = 0.5\nsamples = 2\nvalue = [1, 1]"] ;
249 -> 250 ;
251 [label="gini = 0.0\nsamples = 1\nvalue = [0, 1]"] ;
250 -> 251 ;
252 [label="gini = 0.0\nsamples = 1\nvalue = [1, 0]"] ;
250 -> 252 ;
253 [label="gini = 0.0\nsamples = 5\nvalue = [5, 0]"] ;
249 -> 253 ;
254 [label="X[44] <= 30.5\ngini = 0.375\nsamples = 4\nvalue = [3, 1]"] ;
242 -> 254 ;
255 [label="gini = 0.0\nsamples = 1\nvalue = [0, 1]"] ;
254 -> 255 ;
256 [label="gini = 0.0\nsamples = 3\nvalue = [3, 0]"] ;
254 -> 256 ;
257 [label="X[46] <= 6585.0\ngini = 0.021\nsamples = 463\nvalue = [458, 5]"] ;
151 -> 257 ;
258 [label="gini = 0.0\nsamples = 1\nvalue = [0, 1]"] ;
257 -> 258 ;
259 [label="X[32] <= 0.5\ngini = 0.017\nsamples = 462\nvalue = [458, 4]"] ;
257 -> 259 ;
260 [label="X[41] <= 0.5\ngini = 0.013\nsamples = 459\nvalue = [456, 3]"] ;
259 -> 260 ;
261 [label="X[47] <= 11.5\ngini = 0.009\nsamples = 455\nvalue = [453, 2]"] ;
260 -> 261 ;
262 [label="X[37] <= 0.5\ngini = 0.042\nsamples = 94\nvalue = [92, 2]"] ;
261 -> 262 ;
263 [label="X[48] <= 129.5\ngini = 0.022\nsamples = 92\nvalue = [91, 1]"] ;
262 -> 263 ;
264 [label="gini = 0.0\nsamples = 84\nvalue = [84, 0]"] ;
263 -> 264 ;
265 [label="X[48] <= 131.0\ngini = 0.219\nsamples = 8\nvalue = [7, 1]"] ;
263 -> 265 ;
266 [label="gini = 0.0\nsamples = 1\nvalue = [0, 1]"] ;
265 -> 266 ;
267 [label="gini = 0.0\nsamples = 7\nvalue = [7, 0]"] ;
265 -> 267 ;
268 [label="X[25] <= 0.5\ngini = 0.5\nsamples = 2\nvalue = [1, 1]"] ;
262 -> 268 ;
269 [label="gini = 0.0\nsamples = 1\nvalue = [1, 0]"] ;
268 -> 269 ;
270 [label="gini = 0.0\nsamples = 1\nvalue = [0, 1]"] ;
268 -> 270 ;
271 [label="gini = 0.0\nsamples = 361\nvalue = [361, 0]"] ;
261 -> 271 ;
272 [label="X[50] <= 106.0\ngini = 0.375\nsamples = 4\nvalue = [3, 1]"] ;
260 -> 272 ;
273 [label="gini = 0.0\nsamples = 1\nvalue = [0, 1]"] ;
272 -> 273 ;
274 [label="gini = 0.0\nsamples = 3\nvalue = [3, 0]"] ;
272 -> 274 ;
275 [label="X[44] <= 38.0\ngini = 0.444\nsamples = 3\nvalue = [2, 1]"] ;
259 -> 275 ;
276 [label="gini = 0.0\nsamples = 2\nvalue = [2, 0]"] ;
275 -> 276 ;
277 [label="gini = 0.0\nsamples = 1\nvalue = [0, 1]"] ;
275 -> 277 ;
278 [label="X[11] <= 0.5\ngini = 0.025\nsamples = 1025\nvalue = [1012, 13]"] ;
116 -> 278 ;
279 [label="X[50] <= 96.5\ngini = 0.023\nsamples = 1023\nvalue = [1011, 12]"] ;
278 -> 279 ;
280 [label="X[37] <= 0.5\ngini = 0.153\nsamples = 72\nvalue = [66, 6]"] ;
279 -> 280 ;
281 [label="X[23] <= 0.5\ngini = 0.036\nsamples = 54\nvalue = [53, 1]"] ;
280 -> 281 ;
282 [label="X[41] <= 0.5\ngini = 0.278\nsamples = 6\nvalue = [5, 1]"] ;
281 -> 282 ;
283 [label="gini = 0.0\nsamples = 1\nvalue = [0, 1]"] ;
282 -> 283 ;
284 [label="gini = 0.0\nsamples = 5\nvalue = [5, 0]"] ;
282 -> 284 ;
285 [label="gini = 0.0\nsamples = 48\nvalue = [48, 0]"] ;
281 -> 285 ;
286 [label="X[47] <= 17.0\ngini = 0.401\nsamples = 18\nvalue = [13, 5]"] ;
280 -> 286 ;
287 [label="X[44] <= 34.0\ngini = 0.494\nsamples = 9\nvalue = [4, 5]"] ;
286 -> 287 ;
288 [label="X[6] <= 0.5\ngini = 0.32\nsamples = 5\nvalue = [1, 4]"] ;
287 -> 288 ;
289 [label="gini = 0.0\nsamples = 4\nvalue = [0, 4]"] ;
288 -> 289 ;
290 [label="gini = 0.0\nsamples = 1\nvalue = [1, 0]"] ;
288 -> 290 ;
291 [label="X[6] <= 0.5\ngini = 0.375\nsamples = 4\nvalue = [3, 1]"] ;
287 -> 291 ;
292 [label="gini = 0.0\nsamples = 3\nvalue = [3, 0]"] ;
291 -> 292 ;
293 [label="gini = 0.0\nsamples = 1\nvalue = [0, 1]"] ;
291 -> 293 ;
294 [label="gini = 0.0\nsamples = 9\nvalue = [9, 0]"] ;
286 -> 294 ;
295 [label="X[27] <= 0.5\ngini = 0.013\nsamples = 951\nvalue = [945, 6]"] ;
279 -> 295 ;
296 [label="X[48] <= 141.5\ngini = 0.011\nsamples = 946\nvalue = [941, 5]"] ;
295 -> 296 ;
297 [label="X[44] <= 59.5\ngini = 0.008\nsamples = 940\nvalue = [936, 4]"] ;
296 -> 297 ;
298 [label="X[8] <= 0.5\ngini = 0.006\nsamples = 934\nvalue = [931, 3]"] ;
297 -> 298 ;
299 [label="X[22] <= 0.5\ngini = 0.004\nsamples = 924\nvalue = [922, 2]"] ;
298 -> 299 ;
300 [label="X[48] <= 133.0\ngini = 0.023\nsamples = 170\nvalue = [168, 2]"] ;
299 -> 300 ;
301 [label="X[44] <= 31.5\ngini = 0.012\nsamples = 162\nvalue = [161, 1]"] ;
300 -> 301 ;
302 [label="X[50] <= 273.5\ngini = 0.077\nsamples = 25\nvalue = [24, 1]"] ;
301 -> 302 ;
303 [label="gini = 0.0\nsamples = 20\nvalue = [20, 0]"] ;
302 -> 303 ;
304 [label="X[44] <= 29.5\ngini = 0.32\nsamples = 5\nvalue = [4, 1]"] ;
302 -> 304 ;
305 [label="gini = 0.0\nsamples = 4\nvalue = [4, 0]"] ;
304 -> 305 ;
306 [label="gini = 0.0\nsamples = 1\nvalue = [0, 1]"] ;
304 -> 306 ;
307 [label="gini = 0.0\nsamples = 137\nvalue = [137, 0]"] ;
301 -> 307 ;
308 [label="X[48] <= 135.0\ngini = 0.219\nsamples = 8\nvalue = [7, 1]"] ;
300 -> 308 ;
309 [label="gini = 0.0\nsamples = 1\nvalue = [0, 1]"] ;
308 -> 309 ;
310 [label="gini = 0.0\nsamples = 7\nvalue = [7, 0]"] ;
308 -> 310 ;
311 [label="gini = 0.0\nsamples = 754\nvalue = [754, 0]"] ;
299 -> 311 ;
312 [label="X[33] <= 0.5\ngini = 0.18\nsamples = 10\nvalue = [9, 1]"] ;
298 -> 312 ;
313 [label="gini = 0.0\nsamples = 8\nvalue = [8, 0]"] ;
312 -> 313 ;
314 [label="X[46] <= 1110.0\ngini = 0.5\nsamples = 2\nvalue = [1, 1]"] ;
312 -> 314 ;
315 [label="gini = 0.0\nsamples = 1\nvalue = [0, 1]"] ;
314 -> 315 ;
316 [label="gini = 0.0\nsamples = 1\nvalue = [1, 0]"] ;
314 -> 316 ;
317 [label="X[50] <= 353.5\ngini = 0.278\nsamples = 6\nvalue = [5, 1]"] ;
297 -> 317 ;
318 [label="gini = 0.0\nsamples = 5\nvalue = [5, 0]"] ;
317 -> 318 ;
319 [label="gini = 0.0\nsamples = 1\nvalue = [0, 1]"] ;
317 -> 319 ;
320 [label="X[41] <= 0.5\ngini = 0.278\nsamples = 6\nvalue = [5, 1]"] ;
296 -> 320 ;
321 [label="gini = 0.0\nsamples = 5\nvalue = [5, 0]"] ;
320 -> 321 ;
322 [label="gini = 0.0\nsamples = 1\nvalue = [0, 1]"] ;
320 -> 322 ;
323 [label="X[0] <= 0.5\ngini = 0.32\nsamples = 5\nvalue = [4, 1]"] ;
295 -> 323 ;
324 [label="gini = 0.0\nsamples = 4\nvalue = [4, 0]"] ;
323 -> 324 ;
325 [label="gini = 0.0\nsamples = 1\nvalue = [0, 1]"] ;
323 -> 325 ;
326 [label="X[48] <= 107.5\ngini = 0.5\nsamples = 2\nvalue = [1, 1]"] ;
278 -> 326 ;
327 [label="gini = 0.0\nsamples = 1\nvalue = [0, 1]"] ;
326 -> 327 ;
328 [label="gini = 0.0\nsamples = 1\nvalue = [1, 0]"] ;
326 -> 328 ;
329 [label="X[7] <= 0.5\ngini = 0.153\nsamples = 24\nvalue = [22, 2]"] ;
115 -> 329 ;
330 [label="X[12] <= 0.5\ngini = 0.083\nsamples = 23\nvalue = [22, 1]"] ;
329 -> 330 ;
331 [label="gini = 0.0\nsamples = 21\nvalue = [21, 0]"] ;
330 -> 331 ;
332 [label="X[43] <= 0.5\ngini = 0.5\nsamples = 2\nvalue = [1, 1]"] ;
330 -> 332 ;
333 [label="gini = 0.0\nsamples = 1\nvalue = [1, 0]"] ;
332 -> 333 ;
334 [label="gini = 0.0\nsamples = 1\nvalue = [0, 1]"] ;
332 -> 334 ;
335 [label="gini = 0.0\nsamples = 1\nvalue = [0, 1]"] ;
329 -> 335 ;
336 [label="X[10] <= 0.5\ngini = 0.225\nsamples = 31\nvalue = [27, 4]"] ;
54 -> 336 ;
337 [label="X[50] <= 396.5\ngini = 0.18\nsamples = 30\nvalue = [27, 3]"] ;
336 -> 337 ;
338 [label="X[44] <= 37.0\ngini = 0.48\nsamples = 5\nvalue = [3, 2]"] ;
337 -> 338 ;
339 [label="gini = 0.0\nsamples = 2\nvalue = [2, 0]"] ;
338 -> 339 ;
340 [label="X[40] <= 0.5\ngini = 0.444\nsamples = 3\nvalue = [1, 2]"] ;
338 -> 340 ;
341 [label="gini = 0.0\nsamples = 1\nvalue = [1, 0]"] ;
340 -> 341 ;
342 [label="gini = 0.0\nsamples = 2\nvalue = [0, 2]"] ;
340 -> 342 ;
343 [label="X[50] <= 778.5\ngini = 0.077\nsamples = 25\nvalue = [24, 1]"] ;
337 -> 343 ;
344 [label="gini = 0.0\nsamples = 22\nvalue = [22, 0]"] ;
343 -> 344 ;
345 [label="X[46] <= 89.0\ngini = 0.444\nsamples = 3\nvalue = [2, 1]"] ;
343 -> 345 ;
346 [label="gini = 0.0\nsamples = 1\nvalue = [0, 1]"] ;
345 -> 346 ;
347 [label="gini = 0.0\nsamples = 2\nvalue = [2, 0]"] ;
345 -> 347 ;
348 [label="gini = 0.0\nsamples = 1\nvalue = [0, 1]"] ;
336 -> 348 ;
349 [label="X[50] <= 9.0\ngini = 0.052\nsamples = 6552\nvalue = [6378, 174]"] ;
9 -> 349 ;
350 [label="X[44] <= 21.5\ngini = 0.038\nsamples = 5714\nvalue = [5604, 110]"] ;
349 -> 350 ;
351 [label="X[22] <= 0.5\ngini = 0.444\nsamples = 18\nvalue = [12, 6]"] ;
350 -> 351 ;
352 [label="X[48] <= 164.0\ngini = 0.496\nsamples = 11\nvalue = [5, 6]"] ;
351 -> 352 ;
353 [label="gini = 0.0\nsamples = 2\nvalue = [2, 0]"] ;
352 -> 353 ;
354 [label="X[4] <= 0.5\ngini = 0.444\nsamples = 9\nvalue = [3, 6]"] ;
352 -> 354 ;
355 [label="X[48] <= 194.0\ngini = 0.375\nsamples = 8\nvalue = [2, 6]"] ;
354 -> 355 ;
356 [label="gini = 0.0\nsamples = 5\nvalue = [0, 5]"] ;
355 -> 356 ;
357 [label="X[44] <= 19.5\ngini = 0.444\nsamples = 3\nvalue = [2, 1]"] ;
355 -> 357 ;
358 [label="gini = 0.0\nsamples = 1\nvalue = [0, 1]"] ;
357 -> 358 ;
359 [label="gini = 0.0\nsamples = 2\nvalue = [2, 0]"] ;
357 -> 359 ;
360 [label="gini = 0.0\nsamples = 1\nvalue = [1, 0]"] ;
354 -> 360 ;
361 [label="gini = 0.0\nsamples = 7\nvalue = [7, 0]"] ;
351 -> 361 ;
362 [label="X[47] <= 4.5\ngini = 0.036\nsamples = 5696\nvalue = [5592, 104]"] ;
350 -> 362 ;
363 [label="X[27] <= 0.5\ngini = 0.141\nsamples = 366\nvalue = [338, 28]"] ;
362 -> 363 ;
364 [label="X[12] <= 0.5\ngini = 0.315\nsamples = 138\nvalue = [111, 27]"] ;
363 -> 364 ;
365 [label="X[29] <= 0.5\ngini = 0.264\nsamples = 128\nvalue = [108, 20]"] ;
364 -> 365 ;
366 [label="X[48] <= 159.5\ngini = 0.366\nsamples = 83\nvalue = [63, 20]"] ;
365 -> 366 ;
367 [label="X[37] <= 0.5\ngini = 0.074\nsamples = 26\nvalue = [25, 1]"] ;
366 -> 367 ;
368 [label="gini = 0.0\nsamples = 22\nvalue = [22, 0]"] ;
367 -> 368 ;
369 [label="X[46] <= 373.0\ngini = 0.375\nsamples = 4\nvalue = [3, 1]"] ;
367 -> 369 ;
370 [label="gini = 0.0\nsamples = 1\nvalue = [0, 1]"] ;
369 -> 370 ;
371 [label="gini = 0.0\nsamples = 3\nvalue = [3, 0]"] ;
369 -> 371 ;
372 [label="X[36] <= 0.5\ngini = 0.444\nsamples = 57\nvalue = [38, 19]"] ;
366 -> 372 ;
373 [label="X[17] <= 0.5\ngini = 0.478\nsamples = 48\nvalue = [29, 19]"] ;
372 -> 373 ;
374 [label="X[44] <= 53.5\ngini = 0.497\nsamples = 28\nvalue = [13, 15]"] ;
373 -> 374 ;
375 [label="X[44] <= 43.5\ngini = 0.496\nsamples = 22\nvalue = [12, 10]"] ;
374 -> 375 ;
376 [label="X[44] <= 34.5\ngini = 0.49\nsamples = 14\nvalue = [6, 8]"] ;
375 -> 376 ;
377 [label="X[7] <= 0.5\ngini = 0.48\nsamples = 10\nvalue = [6, 4]"] ;
376 -> 377 ;
378 [label="gini = 0.0\nsamples = 5\nvalue = [5, 0]"] ;
377 -> 378 ;
379 [label="X[46] <= 15.5\ngini = 0.32\nsamples = 5\nvalue = [1, 4]"] ;
377 -> 379 ;
380 [label="gini = 0.0\nsamples = 1\nvalue = [1, 0]"] ;
379 -> 380 ;
381 [label="gini = 0.0\nsamples = 4\nvalue = [0, 4]"] ;
379 -> 381 ;
382 [label="gini = 0.0\nsamples = 4\nvalue = [0, 4]"] ;
376 -> 382 ;
383 [label="X[48] <= 168.5\ngini = 0.375\nsamples = 8\nvalue = [6, 2]"] ;
375 -> 383 ;
384 [label="gini = 0.0\nsamples = 2\nvalue = [0, 2]"] ;
383 -> 384 ;
385 [label="gini = 0.0\nsamples = 6\nvalue = [6, 0]"] ;
383 -> 385 ;
386 [label="X[48] <= 173.0\ngini = 0.278\nsamples = 6\nvalue = [1, 5]"] ;
374 -> 386 ;
387 [label="X[47] <= 2.5\ngini = 0.5\nsamples = 2\nvalue = [1, 1]"] ;
386 -> 387 ;
388 [label="gini = 0.0\nsamples = 1\nvalue = [0, 1]"] ;
387 -> 388 ;
389 [label="gini = 0.0\nsamples = 1\nvalue = [1, 0]"] ;
387 -> 389 ;
390 [label="gini = 0.0\nsamples = 4\nvalue = [0, 4]"] ;
386 -> 390 ;
391 [label="X[47] <= 3.5\ngini = 0.32\nsamples = 20\nvalue = [16, 4]"] ;
373 -> 391 ;
392 [label="X[8] <= 0.5\ngini = 0.208\nsamples = 17\nvalue = [15, 2]"] ;
391 -> 392 ;
393 [label="X[45] <= 80.0\ngini = 0.117\nsamples = 16\nvalue = [15, 1]"] ;
392 -> 393 ;
394 [label="gini = 0.0\nsamples = 13\nvalue = [13, 0]"] ;
393 -> 394 ;
395 [label="X[46] <= 1314.0\ngini = 0.444\nsamples = 3\nvalue = [2, 1]"] ;
393 -> 395 ;
396 [label="gini = 0.0\nsamples = 1\nvalue = [0, 1]"] ;
395 -> 396 ;
397 [label="gini = 0.0\nsamples = 2\nvalue = [2, 0]"] ;
395 -> 397 ;
398 [label="gini = 0.0\nsamples = 1\nvalue = [0, 1]"] ;
392 -> 398 ;
399 [label="X[45] <= 60.0\ngini = 0.444\nsamples = 3\nvalue = [1, 2]"] ;
391 -> 399 ;
400 [label="gini = 0.0\nsamples = 2\nvalue = [0, 2]"] ;
399 -> 400 ;
401 [label="gini = 0.0\nsamples = 1\nvalue = [1, 0]"] ;
399 -> 401 ;
402 [label="gini = 0.0\nsamples = 9\nvalue = [9, 0]"] ;
372 -> 402 ;
403 [label="gini = 0.0\nsamples = 45\nvalue = [45, 0]"] ;
365 -> 403 ;
404 [label="X[46] <= 93.5\ngini = 0.42\nsamples = 10\nvalue = [3, 7]"] ;
364 -> 404 ;
405 [label="gini = 0.0\nsamples = 2\nvalue = [2, 0]"] ;
404 -> 405 ;
406 [label="X[29] <= 0.5\ngini = 0.219\nsamples = 8\nvalue = [1, 7]"] ;
404 -> 406 ;
407 [label="gini = 0.0\nsamples = 6\nvalue = [0, 6]"] ;
406 -> 407 ;
408 [label="X[46] <= 702.0\ngini = 0.5\nsamples = 2\nvalue = [1, 1]"] ;
406 -> 408 ;
409 [label="gini = 0.0\nsamples = 1\nvalue = [1, 0]"] ;
408 -> 409 ;
410 [label="gini = 0.0\nsamples = 1\nvalue = [0, 1]"] ;
408 -> 410 ;
411 [label="X[48] <= 150.5\ngini = 0.009\nsamples = 228\nvalue = [227, 1]"] ;
363 -> 411 ;
412 [label="X[34] <= 0.5\ngini = 0.054\nsamples = 36\nvalue = [35, 1]"] ;
411 -> 412 ;
413 [label="X[46] <= 1316.0\ngini = 0.32\nsamples = 5\nvalue = [4, 1]"] ;
412 -> 413 ;
414 [label="gini = 0.0\nsamples = 4\nvalue = [4, 0]"] ;
413 -> 414 ;
415 [label="gini = 0.0\nsamples = 1\nvalue = [0, 1]"] ;
413 -> 415 ;
416 [label="gini = 0.0\nsamples = 31\nvalue = [31, 0]"] ;
412 -> 416 ;
417 [label="gini = 0.0\nsamples = 192\nvalue = [192, 0]"] ;
411 -> 417 ;
418 [label="X[22] <= 0.5\ngini = 0.028\nsamples = 5330\nvalue = [5254, 76]"] ;
362 -> 418 ;
419 [label="X[44] <= 25.5\ngini = 0.051\nsamples = 2251\nvalue = [2192, 59]"] ;
418 -> 419 ;
420 [label="X[32] <= 0.5\ngini = 0.305\nsamples = 32\nvalue = [26, 6]"] ;
419 -> 420 ;
421 [label="X[48] <= 169.5\ngini = 0.271\nsamples = 31\nvalue = [26, 5]"] ;
420 -> 421 ;
422 [label="X[44] <= 22.5\ngini = 0.091\nsamples = 21\nvalue = [20, 1]"] ;
421 -> 422 ;
423 [label="X[33] <= 0.5\ngini = 0.375\nsamples = 4\nvalue = [3, 1]"] ;
422 -> 423 ;
424 [label="gini = 0.0\nsamples = 3\nvalue = [3, 0]"] ;
423 -> 424 ;
425 [label="gini = 0.0\nsamples = 1\nvalue = [0, 1]"] ;
423 -> 425 ;
426 [label="gini = 0.0\nsamples = 17\nvalue = [17, 0]"] ;
422 -> 426 ;
427 [label="X[44] <= 24.5\ngini = 0.48\nsamples = 10\nvalue = [6, 4]"] ;
421 -> 427 ;
428 [label="gini = 0.0\nsamples = 4\nvalue = [4, 0]"] ;
427 -> 428 ;
429 [label="X[24] <= 0.5\ngini = 0.444\nsamples = 6\nvalue = [2, 4]"] ;
427 -> 429 ;
430 [label="gini = 0.0\nsamples = 4\nvalue = [0, 4]"] ;
429 -> 430 ;
431 [label="gini = 0.0\nsamples = 2\nvalue = [2, 0]"] ;
429 -> 431 ;
432 [label="gini = 0.0\nsamples = 1\nvalue = [0, 1]"] ;
420 -> 432 ;
433 [label="X[46] <= 2804.5\ngini = 0.047\nsamples = 2219\nvalue = [2166, 53]"] ;
419 -> 433 ;
434 [label="X[46] <= 155.5\ngini = 0.036\nsamples = 1934\nvalue = [1899, 35]"] ;
433 -> 434 ;
435 [label="X[32] <= 0.5\ngini = 0.012\nsamples = 808\nvalue = [803, 5]"] ;
434 -> 435 ;
436 [label="X[2] <= 0.5\ngini = 0.008\nsamples = 771\nvalue = [768, 3]"] ;
435 -> 436 ;
437 [label="X[47] <= 5.5\ngini = 0.005\nsamples = 745\nvalue = [743, 2]"] ;
436 -> 437 ;
438 [label="X[44] <= 34.5\ngini = 0.062\nsamples = 31\nvalue = [30, 1]"] ;
437 -> 438 ;
439 [label="X[34] <= 0.5\ngini = 0.32\nsamples = 5\nvalue = [4, 1]"] ;
438 -> 439 ;
440 [label="gini = 0.0\nsamples = 4\nvalue = [4, 0]"] ;
439 -> 440 ;
441 [label="gini = 0.0\nsamples = 1\nvalue = [0, 1]"] ;
439 -> 441 ;
442 [label="gini = 0.0\nsamples = 26\nvalue = [26, 0]"] ;
438 -> 442 ;
443 [label="X[44] <= 58.5\ngini = 0.003\nsamples = 714\nvalue = [713, 1]"] ;
437 -> 443 ;
444 [label="gini = 0.0\nsamples = 685\nvalue = [685, 0]"] ;
443 -> 444 ;
445 [label="X[0] <= 0.5\ngini = 0.067\nsamples = 29\nvalue = [28, 1]"] ;
443 -> 445 ;
446 [label="gini = 0.0\nsamples = 27\nvalue = [27, 0]"] ;
445 -> 446 ;
447 [label="X[49] <= 1.5\ngini = 0.5\nsamples = 2\nvalue = [1, 1]"] ;
445 -> 447 ;
448 [label="gini = 0.0\nsamples = 1\nvalue = [0, 1]"] ;
447 -> 448 ;
449 [label="gini = 0.0\nsamples = 1\nvalue = [1, 0]"] ;
447 -> 449 ;
450 [label="X[26] <= 0.5\ngini = 0.074\nsamples = 26\nvalue = [25, 1]"] ;
436 -> 450 ;
451 [label="gini = 0.0\nsamples = 24\nvalue = [24, 0]"] ;
450 -> 451 ;
452 [label="X[37] <= 0.5\ngini = 0.5\nsamples = 2\nvalue = [1, 1]"] ;
450 -> 452 ;
453 [label="gini = 0.0\nsamples = 1\nvalue = [1, 0]"] ;
452 -> 453 ;
454 [label="gini = 0.0\nsamples = 1\nvalue = [0, 1]"] ;
452 -> 454 ;
455 [label="X[49] <= 5.5\ngini = 0.102\nsamples = 37\nvalue = [35, 2]"] ;
435 -> 455 ;
456 [label="X[0] <= 0.5\ngini = 0.054\nsamples = 36\nvalue = [35, 1]"] ;
455 -> 456 ;
457 [label="gini = 0.0\nsamples = 33\nvalue = [33, 0]"] ;
456 -> 457 ;
458 [label="X[17] <= 0.5\ngini = 0.444\nsamples = 3\nvalue = [2, 1]"] ;
456 -> 458 ;
459 [label="gini = 0.0\nsamples = 2\nvalue = [2, 0]"] ;
458 -> 459 ;
460 [label="gini = 0.0\nsamples = 1\nvalue = [0, 1]"] ;
458 -> 460 ;
461 [label="gini = 0.0\nsamples = 1\nvalue = [0, 1]"] ;
455 -> 461 ;
462 [label="X[46] <= 158.0\ngini = 0.052\nsamples = 1126\nvalue = [1096, 30]"] ;
434 -> 462 ;
463 [label="X[25] <= 0.5\ngini = 0.5\nsamples = 2\nvalue = [1, 1]"] ;
462 -> 463 ;
464 [label="gini = 0.0\nsamples = 1\nvalue = [1, 0]"] ;
463 -> 464 ;
465 [label="gini = 0.0\nsamples = 1\nvalue = [0, 1]"] ;
463 -> 465 ;
466 [label="X[44] <= 26.5\ngini = 0.05\nsamples = 1124\nvalue = [1095, 29]"] ;
462 -> 466 ;
467 [label="X[47] <= 6.5\ngini = 0.278\nsamples = 12\nvalue = [10, 2]"] ;
466 -> 467 ;
468 [label="gini = 0.0\nsamples = 1\nvalue = [0, 1]"] ;
467 -> 468 ;
469 [label="X[48] <= 148.5\ngini = 0.165\nsamples = 11\nvalue = [10, 1]"] ;
467 -> 469 ;
470 [label="gini = 0.0\nsamples = 1\nvalue = [0, 1]"] ;
469 -> 470 ;
471 [label="gini = 0.0\nsamples = 10\nvalue = [10, 0]"] ;
469 -> 471 ;
472 [label="X[49] <= 1.5\ngini = 0.047\nsamples = 1112\nvalue = [1085, 27]"] ;
466 -> 472 ;
473 [label="X[14] <= 0.5\ngini = 0.083\nsamples = 347\nvalue = [332, 15]"] ;
472 -> 473 ;
474 [label="X[17] <= 0.5\ngini = 0.052\nsamples = 262\nvalue = [255, 7]"] ;
473 -> 474 ;
475 [label="X[47] <= 5.5\ngini = 0.031\nsamples = 191\nvalue = [188, 3]"] ;
474 -> 475 ;
476 [label="X[37] <= 0.5\ngini = 0.188\nsamples = 19\nvalue = [17, 2]"] ;
475 -> 476 ;
477 [label="gini = 0.0\nsamples = 17\nvalue = [17, 0]"] ;
476 -> 477 ;
478 [label="gini = 0.0\nsamples = 2\nvalue = [0, 2]"] ;
476 -> 478 ;
479 [label="X[18] <= 0.5\ngini = 0.012\nsamples = 172\nvalue = [171, 1]"] ;
475 -> 479 ;
480 [label="gini = 0.0\nsamples = 165\nvalue = [165, 0]"] ;
479 -> 480 ;
481 [label="X[12] <= 0.5\ngini = 0.245\nsamples = 7\nvalue = [6, 1]"] ;
479 -> 481 ;
482 [label="gini = 0.0\nsamples = 6\nvalue = [6, 0]"] ;
481 -> 482 ;
483 [label="gini = 0.0\nsamples = 1\nvalue = [0, 1]"] ;
481 -> 483 ;
484 [label="X[34] <= 0.5\ngini = 0.106\nsamples = 71\nvalue = [67, 4]"] ;
474 -> 484 ;
485 [label="X[29] <= 0.5\ngini = 0.035\nsamples = 56\nvalue = [55, 1]"] ;
484 -> 485 ;
486 [label="gini = 0.0\nsamples = 40\nvalue = [40, 0]"] ;
485 -> 486 ;
487 [label="X[47] <= 16.0\ngini = 0.117\nsamples = 16\nvalue = [15, 1]"] ;
485 -> 487 ;
488 [label="gini = 0.0\nsamples = 12\nvalue = [12, 0]"] ;
487 -> 488 ;
489 [label="X[48] <= 167.5\ngini = 0.375\nsamples = 4\nvalue = [3, 1]"] ;
487 -> 489 ;
490 [label="gini = 0.0\nsamples = 1\nvalue = [0, 1]"] ;
489 -> 490 ;
491 [label="gini = 0.0\nsamples = 3\nvalue = [3, 0]"] ;
489 -> 491 ;
492 [label="X[27] <= 0.5\ngini = 0.32\nsamples = 15\nvalue = [12, 3]"] ;
484 -> 492 ;
493 [label="X[44] <= 47.0\ngini = 0.375\nsamples = 4\nvalue = [1, 3]"] ;
492 -> 493 ;
494 [label="gini = 0.0\nsamples = 1\nvalue = [1, 0]"] ;
493 -> 494 ;
495 [label="gini = 0.0\nsamples = 3\nvalue = [0, 3]"] ;
493 -> 495 ;
496 [label="gini = 0.0\nsamples = 11\nvalue = [11, 0]"] ;
492 -> 496 ;
497 [label="X[36] <= 0.5\ngini = 0.171\nsamples = 85\nvalue = [77, 8]"] ;
473 -> 497 ;
498 [label="X[48] <= 143.5\ngini = 0.126\nsamples = 74\nvalue = [69, 5]"] ;
497 -> 498 ;
499 [label="X[4] <= 0.5\ngini = 0.5\nsamples = 2\nvalue = [1, 1]"] ;
498 -> 499 ;
500 [label="gini = 0.0\nsamples = 1\nvalue = [0, 1]"] ;
499 -> 500 ;
501 [label="gini = 0.0\nsamples = 1\nvalue = [1, 0]"] ;
499 -> 501 ;
502 [label="X[4] <= 0.5\ngini = 0.105\nsamples = 72\nvalue = [68, 4]"] ;
498 -> 502 ;
503 [label="X[46] <= 174.0\ngini = 0.034\nsamples = 58\nvalue = [57, 1]"] ;
502 -> 503 ;
504 [label="X[44] <= 34.5\ngini = 0.5\nsamples = 2\nvalue = [1, 1]"] ;
503 -> 504 ;
505 [label="gini = 0.0\nsamples = 1\nvalue = [0, 1]"] ;
504 -> 505 ;
506 [label="gini = 0.0\nsamples = 1\nvalue = [1, 0]"] ;
504 -> 506 ;
507 [label="gini = 0.0\nsamples = 56\nvalue = [56, 0]"] ;
503 -> 507 ;
508 [label="X[47] <= 9.5\ngini = 0.337\nsamples = 14\nvalue = [11, 3]"] ;
502 -> 508 ;
509 [label="gini = 0.0\nsamples = 2\nvalue = [0, 2]"] ;
508 -> 509 ;
510 [label="X[46] <= 1664.0\ngini = 0.153\nsamples = 12\nvalue = [11, 1]"] ;
508 -> 510 ;
511 [label="gini = 0.0\nsamples = 10\nvalue = [10, 0]"] ;
510 -> 511 ;
512 [label="X[44] <= 44.5\ngini = 0.5\nsamples = 2\nvalue = [1, 1]"] ;
510 -> 512 ;
513 [label="gini = 0.0\nsamples = 1\nvalue = [0, 1]"] ;
512 -> 513 ;
514 [label="gini = 0.0\nsamples = 1\nvalue = [1, 0]"] ;
512 -> 514 ;
515 [label="X[48] <= 192.5\ngini = 0.397\nsamples = 11\nvalue = [8, 3]"] ;
497 -> 515 ;
516 [label="X[9] <= 0.5\ngini = 0.198\nsamples = 9\nvalue = [8, 1]"] ;
515 -> 516 ;
517 [label="gini = 0.0\nsamples = 7\nvalue = [7, 0]"] ;
516 -> 517 ;
518 [label="X[46] <= 1956.5\ngini = 0.5\nsamples = 2\nvalue = [1, 1]"] ;
516 -> 518 ;
519 [label="gini = 0.0\nsamples = 1\nvalue = [0, 1]"] ;
518 -> 519 ;
520 [label="gini = 0.0\nsamples = 1\nvalue = [1, 0]"] ;
518 -> 520 ;
521 [label="gini = 0.0\nsamples = 2\nvalue = [0, 2]"] ;
515 -> 521 ;
522 [label="X[44] <= 41.5\ngini = 0.031\nsamples = 765\nvalue = [753, 12]"] ;
472 -> 522 ;
523 [label="X[47] <= 5.5\ngini = 0.058\nsamples = 336\nvalue = [326, 10]"] ;
522 -> 523 ;
524 [label="X[23] <= 0.5\ngini = 0.32\nsamples = 5\nvalue = [4, 1]"] ;
523 -> 524 ;
525 [label="gini = 0.0\nsamples = 1\nvalue = [0, 1]"] ;
524 -> 525 ;
526 [label="gini = 0.0\nsamples = 4\nvalue = [4, 0]"] ;
524 -> 526 ;
527 [label="X[45] <= 35.0\ngini = 0.053\nsamples = 331\nvalue = [322, 9]"] ;
523 -> 527 ;
528 [label="X[49] <= 10.5\ngini = 0.013\nsamples = 151\nvalue = [150, 1]"] ;
527 -> 528 ;
529 [label="gini = 0.0\nsamples = 149\nvalue = [149, 0]"] ;
528 -> 529 ;
530 [label="X[33] <= 0.5\ngini = 0.5\nsamples = 2\nvalue = [1, 1]"] ;
528 -> 530 ;
531 [label="gini = 0.0\nsamples = 1\nvalue = [1, 0]"] ;
530 -> 531 ;
532 [label="gini = 0.0\nsamples = 1\nvalue = [0, 1]"] ;
530 -> 532 ;
533 [label="X[49] <= 2.5\ngini = 0.085\nsamples = 180\nvalue = [172, 8]"] ;
527 -> 533 ;
534 [label="X[18] <= 0.5\ngini = 0.151\nsamples = 73\nvalue = [67, 6]"] ;
533 -> 534 ;
535 [label="X[48] <= 157.0\ngini = 0.129\nsamples = 72\nvalue = [67, 5]"] ;
534 -> 535 ;
536 [label="X[44] <= 37.5\ngini = 0.266\nsamples = 19\nvalue = [16, 3]"] ;
535 -> 536 ;
537 [label="X[46] <= 693.5\ngini = 0.444\nsamples = 9\nvalue = [6, 3]"] ;
536 -> 537 ;
538 [label="gini = 0.0\nsamples = 4\nvalue = [4, 0]"] ;
537 -> 538 ;
539 [label="X[46] <= 1329.5\ngini = 0.48\nsamples = 5\nvalue = [2, 3]"] ;
537 -> 539 ;
540 [label="X[13] <= 0.5\ngini = 0.375\nsamples = 4\nvalue = [1, 3]"] ;
539 -> 540 ;
541 [label="gini = 0.0\nsamples = 1\nvalue = [1, 0]"] ;
540 -> 541 ;
542 [label="gini = 0.0\nsamples = 3\nvalue = [0, 3]"] ;
540 -> 542 ;
543 [label="gini = 0.0\nsamples = 1\nvalue = [1, 0]"] ;
539 -> 543 ;
544 [label="gini = 0.0\nsamples = 10\nvalue = [10, 0]"] ;
536 -> 544 ;
545 [label="X[36] <= 0.5\ngini = 0.073\nsamples = 53\nvalue = [51, 2]"] ;
535 -> 545 ;
546 [label="X[47] <= 8.0\ngini = 0.04\nsamples = 49\nvalue = [48, 1]"] ;
545 -> 546 ;
547 [label="X[46] <= 532.5\ngini = 0.32\nsamples = 5\nvalue = [4, 1]"] ;
546 -> 547 ;
548 [label="gini = 0.0\nsamples = 1\nvalue = [0, 1]"] ;
547 -> 548 ;
549 [label="gini = 0.0\nsamples = 4\nvalue = [4, 0]"] ;
547 -> 549 ;
550 [label="gini = 0.0\nsamples = 44\nvalue = [44, 0]"] ;
546 -> 550 ;
551 [label="X[46] <= 345.5\ngini = 0.375\nsamples = 4\nvalue = [3, 1]"] ;
545 -> 551 ;
552 [label="gini = 0.0\nsamples = 1\nvalue = [0, 1]"] ;
551 -> 552 ;
553 [label="gini = 0.0\nsamples = 3\nvalue = [3, 0]"] ;
551 -> 553 ;
554 [label="gini = 0.0\nsamples = 1\nvalue = [0, 1]"] ;
534 -> 554 ;
555 [label="X[48] <= 192.5\ngini = 0.037\nsamples = 107\nvalue = [105, 2]"] ;
533 -> 555 ;
556 [label="gini = 0.0\nsamples = 85\nvalue = [85, 0]"] ;
555 -> 556 ;
557 [label="X[47] <= 9.5\ngini = 0.165\nsamples = 22\nvalue = [20, 2]"] ;
555 -> 557 ;
558 [label="X[49] <= 4.5\ngini = 0.48\nsamples = 5\nvalue = [3, 2]"] ;
557 -> 558 ;
559 [label="gini = 0.0\nsamples = 2\nvalue = [0, 2]"] ;
558 -> 559 ;
560 [label="gini = 0.0\nsamples = 3\nvalue = [3, 0]"] ;
558 -> 560 ;
561 [label="gini = 0.0\nsamples = 17\nvalue = [17, 0]"] ;
557 -> 561 ;
562 [label="X[44] <= 59.5\ngini = 0.009\nsamples = 429\nvalue = [427, 2]"] ;
522 -> 562 ;
563 [label="X[5] <= 0.5\ngini = 0.005\nsamples = 419\nvalue = [418, 1]"] ;
562 -> 563 ;
564 [label="gini = 0.0\nsamples = 382\nvalue = [382, 0]"] ;
563 -> 564 ;
565 [label="X[48] <= 191.0\ngini = 0.053\nsamples = 37\nvalue = [36, 1]"] ;
563 -> 565 ;
566 [label="gini = 0.0\nsamples = 27\nvalue = [27, 0]"] ;
565 -> 566 ;
567 [label="X[48] <= 195.5\ngini = 0.18\nsamples = 10\nvalue = [9, 1]"] ;
565 -> 567 ;
568 [label="X[47] <= 23.5\ngini = 0.5\nsamples = 2\nvalue = [1, 1]"] ;
567 -> 568 ;
569 [label="gini = 0.0\nsamples = 1\nvalue = [0, 1]"] ;
568 -> 569 ;
570 [label="gini = 0.0\nsamples = 1\nvalue = [1, 0]"] ;
568 -> 570 ;
571 [label="gini = 0.0\nsamples = 8\nvalue = [8, 0]"] ;
567 -> 571 ;
572 [label="X[48] <= 185.0\ngini = 0.18\nsamples = 10\nvalue = [9, 1]"] ;
562 -> 572 ;
573 [label="gini = 0.0\nsamples = 8\nvalue = [8, 0]"] ;
572 -> 573 ;
574 [label="X[47] <= 19.5\ngini = 0.5\nsamples = 2\nvalue = [1, 1]"] ;
572 -> 574 ;
575 [label="gini = 0.0\nsamples = 1\nvalue = [0, 1]"] ;
574 -> 575 ;
576 [label="gini = 0.0\nsamples = 1\nvalue = [1, 0]"] ;
574 -> 576 ;
577 [label="X[46] <= 2844.5\ngini = 0.118\nsamples = 285\nvalue = [267, 18]"] ;
433 -> 577 ;
578 [label="X[48] <= 152.0\ngini = 0.5\nsamples = 6\nvalue = [3, 3]"] ;
577 -> 578 ;
579 [label="gini = 0.0\nsamples = 2\nvalue = [2, 0]"] ;
578 -> 579 ;
580 [label="X[48] <= 198.0\ngini = 0.375\nsamples = 4\nvalue = [1, 3]"] ;
578 -> 580 ;
581 [label="gini = 0.0\nsamples = 3\nvalue = [0, 3]"] ;
580 -> 581 ;
582 [label="gini = 0.0\nsamples = 1\nvalue = [1, 0]"] ;
580 -> 582 ;
583 [label="X[30] <= 0.5\ngini = 0.102\nsamples = 279\nvalue = [264, 15]"] ;
577 -> 583 ;
584 [label="X[0] <= 0.5\ngini = 0.096\nsamples = 278\nvalue = [264, 14]"] ;
583 -> 584 ;
585 [label="X[45] <= 25.0\ngini = 0.08\nsamples = 262\nvalue = [251, 11]"] ;
584 -> 585 ;
586 [label="X[34] <= 0.5\ngini = 0.187\nsamples = 48\nvalue = [43, 5]"] ;
585 -> 586 ;
587 [label="X[7] <= 0.5\ngini = 0.089\nsamples = 43\nvalue = [41, 2]"] ;
586 -> 587 ;
588 [label="X[48] <= 198.5\ngini = 0.049\nsamples = 40\nvalue = [39, 1]"] ;
587 -> 588 ;
589 [label="gini = 0.0\nsamples = 36\nvalue = [36, 0]"] ;
588 -> 589 ;
590 [label="X[49] <= 2.5\ngini = 0.375\nsamples = 4\nvalue = [3, 1]"] ;
588 -> 590 ;
591 [label="gini = 0.0\nsamples = 1\nvalue = [0, 1]"] ;
590 -> 591 ;
592 [label="gini = 0.0\nsamples = 3\nvalue = [3, 0]"] ;
590 -> 592 ;
593 [label="X[47] <= 19.5\ngini = 0.444\nsamples = 3\nvalue = [2, 1]"] ;
587 -> 593 ;
594 [label="gini = 0.0\nsamples = 2\nvalue = [2, 0]"] ;
593 -> 594 ;
595 [label="gini = 0.0\nsamples = 1\nvalue = [0, 1]"] ;
593 -> 595 ;
596 [label="X[44] <= 28.5\ngini = 0.48\nsamples = 5\nvalue = [2, 3]"] ;
586 -> 596 ;
597 [label="gini = 0.0\nsamples = 2\nvalue = [0, 2]"] ;
596 -> 597 ;
598 [label="X[9] <= 0.5\ngini = 0.444\nsamples = 3\nvalue = [2, 1]"] ;
596 -> 598 ;
599 [label="gini = 0.0\nsamples = 2\nvalue = [2, 0]"] ;
598 -> 599 ;
600 [label="gini = 0.0\nsamples = 1\nvalue = [0, 1]"] ;
598 -> 600 ;
601 [label="X[48] <= 171.5\ngini = 0.055\nsamples = 214\nvalue = [208, 6]"] ;
585 -> 601 ;
602 [label="gini = 0.0\nsamples = 96\nvalue = [96, 0]"] ;
601 -> 602 ;
603 [label="X[48] <= 172.5\ngini = 0.097\nsamples = 118\nvalue = [112, 6]"] ;
601 -> 603 ;
604 [label="X[15] <= 0.5\ngini = 0.444\nsamples = 6\nvalue = [4, 2]"] ;
603 -> 604 ;
605 [label="X[47] <= 17.0\ngini = 0.444\nsamples = 3\nvalue = [1, 2]"] ;
604 -> 605 ;
606 [label="gini = 0.0\nsamples = 2\nvalue = [0, 2]"] ;
605 -> 606 ;
607 [label="gini = 0.0\nsamples = 1\nvalue = [1, 0]"] ;
605 -> 607 ;
608 [label="gini = 0.0\nsamples = 3\nvalue = [3, 0]"] ;
604 -> 608 ;
609 [label="X[17] <= 0.5\ngini = 0.069\nsamples = 112\nvalue = [108, 4]"] ;
603 -> 609 ;
610 [label="X[3] <= 0.5\ngini = 0.025\nsamples = 78\nvalue = [77, 1]"] ;
609 -> 610 ;
611 [label="gini = 0.0\nsamples = 72\nvalue = [72, 0]"] ;
610 -> 611 ;
612 [label="X[47] <= 18.0\ngini = 0.278\nsamples = 6\nvalue = [5, 1]"] ;
610 -> 612 ;
613 [label="gini = 0.0\nsamples = 5\nvalue = [5, 0]"] ;
612 -> 613 ;
614 [label="gini = 0.0\nsamples = 1\nvalue = [0, 1]"] ;
612 -> 614 ;
615 [label="X[7] <= 0.5\ngini = 0.161\nsamples = 34\nvalue = [31, 3]"] ;
609 -> 615 ;
616 [label="X[26] <= 0.5\ngini = 0.114\nsamples = 33\nvalue = [31, 2]"] ;
615 -> 616 ;
617 [label="X[46] <= 3554.0\ngini = 0.062\nsamples = 31\nvalue = [30, 1]"] ;
616 -> 617 ;
618 [label="X[47] <= 12.0\ngini = 0.375\nsamples = 4\nvalue = [3, 1]"] ;
617 -> 618 ;
619 [label="gini = 0.0\nsamples = 3\nvalue = [3, 0]"] ;
618 -> 619 ;
620 [label="gini = 0.0\nsamples = 1\nvalue = [0, 1]"] ;
618 -> 620 ;
621 [label="gini = 0.0\nsamples = 27\nvalue = [27, 0]"] ;
617 -> 621 ;
622 [label="X[37] <= 0.5\ngini = 0.5\nsamples = 2\nvalue = [1, 1]"] ;
616 -> 622 ;
623 [label="gini = 0.0\nsamples = 1\nvalue = [0, 1]"] ;
622 -> 623 ;
624 [label="gini = 0.0\nsamples = 1\nvalue = [1, 0]"] ;
622 -> 624 ;
625 [label="gini = 0.0\nsamples = 1\nvalue = [0, 1]"] ;
615 -> 625 ;
626 [label="X[47] <= 9.5\ngini = 0.305\nsamples = 16\nvalue = [13, 3]"] ;
584 -> 626 ;
627 [label="X[36] <= 0.5\ngini = 0.444\nsamples = 3\nvalue = [1, 2]"] ;
626 -> 627 ;
628 [label="gini = 0.0\nsamples = 2\nvalue = [0, 2]"] ;
627 -> 628 ;
629 [label="gini = 0.0\nsamples = 1\nvalue = [1, 0]"] ;
627 -> 629 ;
630 [label="X[36] <= 0.5\ngini = 0.142\nsamples = 13\nvalue = [12, 1]"] ;
626 -> 630 ;
631 [label="gini = 0.0\nsamples = 12\nvalue = [12, 0]"] ;
630 -> 631 ;
632 [label="gini = 0.0\nsamples = 1\nvalue = [0, 1]"] ;
630 -> 632 ;
633 [label="gini = 0.0\nsamples = 1\nvalue = [0, 1]"] ;
583 -> 633 ;
634 [label="X[46] <= 12178.5\ngini = 0.011\nsamples = 3079\nvalue = [3062, 17]"] ;
418 -> 634 ;
635 [label="X[37] <= 0.5\ngini = 0.009\nsamples = 3047\nvalue = [3033, 14]"] ;
634 -> 635 ;
636 [label="X[44] <= 34.5\ngini = 0.006\nsamples = 2814\nvalue = [2805, 9]"] ;
635 -> 636 ;
637 [label="X[34] <= 0.5\ngini = 0.018\nsamples = 986\nvalue = [977, 9]"] ;
636 -> 637 ;
638 [label="X[0] <= 0.5\ngini = 0.013\nsamples = 947\nvalue = [941, 6]"] ;
637 -> 638 ;
639 [label="X[7] <= 0.5\ngini = 0.007\nsamples = 824\nvalue = [821, 3]"] ;
638 -> 639 ;
640 [label="X[46] <= 2.5\ngini = 0.003\nsamples = 690\nvalue = [689, 1]"] ;
639 -> 640 ;
641 [label="X[46] <= 1.5\ngini = 0.013\nsamples = 155\nvalue = [154, 1]"] ;
640 -> 641 ;
642 [label="gini = 0.0\nsamples = 150\nvalue = [150, 0]"] ;
641 -> 642 ;
643 [label="X[48] <= 180.0\ngini = 0.32\nsamples = 5\nvalue = [4, 1]"] ;
641 -> 643 ;
644 [label="gini = 0.0\nsamples = 4\nvalue = [4, 0]"] ;
643 -> 644 ;
645 [label="gini = 0.0\nsamples = 1\nvalue = [0, 1]"] ;
643 -> 645 ;
646 [label="gini = 0.0\nsamples = 535\nvalue = [535, 0]"] ;
640 -> 646 ;
647 [label="X[48] <= 158.5\ngini = 0.029\nsamples = 134\nvalue = [132, 2]"] ;
639 -> 647 ;
648 [label="X[44] <= 33.5\ngini = 0.108\nsamples = 35\nvalue = [33, 2]"] ;
647 -> 648 ;
649 [label="X[48] <= 157.5\ngini = 0.059\nsamples = 33\nvalue = [32, 1]"] ;
648 -> 649 ;
650 [label="gini = 0.0\nsamples = 30\nvalue = [30, 0]"] ;
649 -> 650 ;
651 [label="X[25] <= 0.5\ngini = 0.444\nsamples = 3\nvalue = [2, 1]"] ;
649 -> 651 ;
652 [label="gini = 0.0\nsamples = 1\nvalue = [1, 0]"] ;
651 -> 652 ;
653 [label="X[36] <= 0.5\ngini = 0.5\nsamples = 2\nvalue = [1, 1]"] ;
651 -> 653 ;
654 [label="gini = 0.0\nsamples = 1\nvalue = [1, 0]"] ;
653 -> 654 ;
655 [label="gini = 0.0\nsamples = 1\nvalue = [0, 1]"] ;
653 -> 655 ;
656 [label="X[33] <= 0.5\ngini = 0.5\nsamples = 2\nvalue = [1, 1]"] ;
648 -> 656 ;
657 [label="gini = 0.0\nsamples = 1\nvalue = [0, 1]"] ;
656 -> 657 ;
658 [label="gini = 0.0\nsamples = 1\nvalue = [1, 0]"] ;
656 -> 658 ;
659 [label="gini = 0.0\nsamples = 99\nvalue = [99, 0]"] ;
647 -> 659 ;
660 [label="X[29] <= 0.5\ngini = 0.048\nsamples = 123\nvalue = [120, 3]"] ;
638 -> 660 ;
661 [label="X[46] <= 954.5\ngini = 0.033\nsamples = 121\nvalue = [119, 2]"] ;
660 -> 661 ;
662 [label="gini = 0.0\nsamples = 103\nvalue = [103, 0]"] ;
661 -> 662 ;
663 [label="X[46] <= 1056.0\ngini = 0.198\nsamples = 18\nvalue = [16, 2]"] ;
661 -> 663 ;
664 [label="gini = 0.0\nsamples = 1\nvalue = [0, 1]"] ;
663 -> 664 ;
665 [label="X[48] <= 149.5\ngini = 0.111\nsamples = 17\nvalue = [16, 1]"] ;
663 -> 665 ;
666 [label="X[47] <= 24.0\ngini = 0.444\nsamples = 3\nvalue = [2, 1]"] ;
665 -> 666 ;
667 [label="gini = 0.0\nsamples = 2\nvalue = [2, 0]"] ;
666 -> 667 ;
668 [label="gini = 0.0\nsamples = 1\nvalue = [0, 1]"] ;
666 -> 668 ;
669 [label="gini = 0.0\nsamples = 14\nvalue = [14, 0]"] ;
665 -> 669 ;
670 [label="X[13] <= 0.5\ngini = 0.5\nsamples = 2\nvalue = [1, 1]"] ;
660 -> 670 ;
671 [label="gini = 0.0\nsamples = 1\nvalue = [0, 1]"] ;
670 -> 671 ;
672 [label="gini = 0.0\nsamples = 1\nvalue = [1, 0]"] ;
670 -> 672 ;
673 [label="X[27] <= 0.5\ngini = 0.142\nsamples = 39\nvalue = [36, 3]"] ;
637 -> 673 ;
674 [label="gini = 0.0\nsamples = 3\nvalue = [0, 3]"] ;
673 -> 674 ;
675 [label="gini = 0.0\nsamples = 36\nvalue = [36, 0]"] ;
673 -> 675 ;
676 [label="gini = 0.0\nsamples = 1828\nvalue = [1828, 0]"] ;
636 -> 676 ;
677 [label="X[47] <= 15.5\ngini = 0.042\nsamples = 233\nvalue = [228, 5]"] ;
635 -> 677 ;
678 [label="gini = 0.0\nsamples = 4\nvalue = [0, 4]"] ;
677 -> 678 ;
679 [label="X[47] <= 26.0\ngini = 0.009\nsamples = 229\nvalue = [228, 1]"] ;
677 -> 679 ;
680 [label="gini = 0.0\nsamples = 228\nvalue = [228, 0]"] ;
679 -> 680 ;
681 [label="gini = 0.0\nsamples = 1\nvalue = [0, 1]"] ;
679 -> 681 ;
682 [label="X[32] <= 0.5\ngini = 0.17\nsamples = 32\nvalue = [29, 3]"] ;
634 -> 682 ;
683 [label="X[46] <= 12210.5\ngini = 0.121\nsamples = 31\nvalue = [29, 2]"] ;
682 -> 683 ;
684 [label="gini = 0.0\nsamples = 1\nvalue = [0, 1]"] ;
683 -> 684 ;
685 [label="X[47] <= 6.5\ngini = 0.064\nsamples = 30\nvalue = [29, 1]"] ;
683 -> 685 ;
686 [label="X[37] <= 0.5\ngini = 0.375\nsamples = 4\nvalue = [3, 1]"] ;
685 -> 686 ;
687 [label="gini = 0.0\nsamples = 3\nvalue = [3, 0]"] ;
686 -> 687 ;
688 [label="gini = 0.0\nsamples = 1\nvalue = [0, 1]"] ;
686 -> 688 ;
689 [label="gini = 0.0\nsamples = 26\nvalue = [26, 0]"] ;
685 -> 689 ;
690 [label="gini = 0.0\nsamples = 1\nvalue = [0, 1]"] ;
682 -> 690 ;
691 [label="X[29] <= 0.5\ngini = 0.141\nsamples = 838\nvalue = [774, 64]"] ;
349 -> 691 ;
692 [label="X[50] <= 93.5\ngini = 0.096\nsamples = 772\nvalue = [733, 39]"] ;
691 -> 692 ;
693 [label="X[9] <= 0.5\ngini = 0.453\nsamples = 52\nvalue = [34, 18]"] ;
692 -> 693 ;
694 [label="X[50] <= 84.5\ngini = 0.381\nsamples = 43\nvalue = [32, 11]"] ;
693 -> 694 ;
695 [label="X[48] <= 166.5\ngini = 0.227\nsamples = 23\nvalue = [20, 3]"] ;
694 -> 695 ;
696 [label="gini = 0.0\nsamples = 12\nvalue = [12, 0]"] ;
695 -> 696 ;
697 [label="X[48] <= 187.5\ngini = 0.397\nsamples = 11\nvalue = [8, 3]"] ;
695 -> 697 ;
698 [label="X[50] <= 63.0\ngini = 0.48\nsamples = 5\nvalue = [2, 3]"] ;
697 -> 698 ;
699 [label="gini = 0.0\nsamples = 3\nvalue = [0, 3]"] ;
698 -> 699 ;
700 [label="gini = 0.0\nsamples = 2\nvalue = [2, 0]"] ;
698 -> 700 ;
701 [label="gini = 0.0\nsamples = 6\nvalue = [6, 0]"] ;
697 -> 701 ;
702 [label="X[46] <= 2662.0\ngini = 0.48\nsamples = 20\nvalue = [12, 8]"] ;
694 -> 702 ;
703 [label="X[45] <= 25.0\ngini = 0.415\nsamples = 17\nvalue = [12, 5]"] ;
702 -> 703 ;
704 [label="X[16] <= 0.5\ngini = 0.49\nsamples = 7\nvalue = [3, 4]"] ;
703 -> 704 ;
705 [label="gini = 0.0\nsamples = 3\nvalue = [0, 3]"] ;
704 -> 705 ;
706 [label="X[23] <= 0.5\ngini = 0.375\nsamples = 4\nvalue = [3, 1]"] ;
704 -> 706 ;
707 [label="gini = 0.0\nsamples = 1\nvalue = [0, 1]"] ;
706 -> 707 ;
708 [label="gini = 0.0\nsamples = 3\nvalue = [3, 0]"] ;
706 -> 708 ;
709 [label="X[45] <= 95.0\ngini = 0.18\nsamples = 10\nvalue = [9, 1]"] ;
703 -> 709 ;
710 [label="gini = 0.0\nsamples = 9\nvalue = [9, 0]"] ;
709 -> 710 ;
711 [label="gini = 0.0\nsamples = 1\nvalue = [0, 1]"] ;
709 -> 711 ;
712 [label="gini = 0.0\nsamples = 3\nvalue = [0, 3]"] ;
702 -> 712 ;
713 [label="X[48] <= 155.0\ngini = 0.346\nsamples = 9\nvalue = [2, 7]"] ;
693 -> 713 ;
714 [label="gini = 0.0\nsamples = 2\nvalue = [2, 0]"] ;
713 -> 714 ;
715 [label="gini = 0.0\nsamples = 7\nvalue = [0, 7]"] ;
713 -> 715 ;
716 [label="X[33] <= 0.5\ngini = 0.057\nsamples = 720\nvalue = [699, 21]"] ;
692 -> 716 ;
717 [label="X[34] <= 0.5\ngini = 0.039\nsamples = 697\nvalue = [683, 14]"] ;
716 -> 717 ;
718 [label="X[50] <= 381.5\ngini = 0.026\nsamples = 672\nvalue = [663, 9]"] ;
717 -> 718 ;
719 [label="X[50] <= 103.0\ngini = 0.021\nsamples = 665\nvalue = [658, 7]"] ;
718 -> 719 ;
720 [label="X[47] <= 27.0\ngini = 0.198\nsamples = 18\nvalue = [16, 2]"] ;
719 -> 720 ;
721 [label="gini = 0.0\nsamples = 15\nvalue = [15, 0]"] ;
720 -> 721 ;
722 [label="X[17] <= 0.5\ngini = 0.444\nsamples = 3\nvalue = [1, 2]"] ;
720 -> 722 ;
723 [label="gini = 0.0\nsamples = 2\nvalue = [0, 2]"] ;
722 -> 723 ;
724 [label="gini = 0.0\nsamples = 1\nvalue = [1, 0]"] ;
722 -> 724 ;
725 [label="X[44] <= 57.5\ngini = 0.015\nsamples = 647\nvalue = [642, 5]"] ;
719 -> 725 ;
726 [label="X[44] <= 36.5\ngini = 0.013\nsamples = 633\nvalue = [629, 4]"] ;
725 -> 726 ;
727 [label="X[46] <= 1340.0\ngini = 0.028\nsamples = 285\nvalue = [281, 4]"] ;
726 -> 727 ;
728 [label="X[12] <= 0.5\ngini = 0.009\nsamples = 217\nvalue = [216, 1]"] ;
727 -> 728 ;
729 [label="gini = 0.0\nsamples = 201\nvalue = [201, 0]"] ;
728 -> 729 ;
730 [label="X[48] <= 188.5\ngini = 0.117\nsamples = 16\nvalue = [15, 1]"] ;
728 -> 730 ;
731 [label="gini = 0.0\nsamples = 13\nvalue = [13, 0]"] ;
730 -> 731 ;
732 [label="X[50] <= 339.5\ngini = 0.444\nsamples = 3\nvalue = [2, 1]"] ;
730 -> 732 ;
733 [label="gini = 0.0\nsamples = 2\nvalue = [2, 0]"] ;
732 -> 733 ;
734 [label="gini = 0.0\nsamples = 1\nvalue = [0, 1]"] ;
732 -> 734 ;
735 [label="X[46] <= 1383.5\ngini = 0.084\nsamples = 68\nvalue = [65, 3]"] ;
727 -> 735 ;
736 [label="gini = 0.0\nsamples = 1\nvalue = [0, 1]"] ;
735 -> 736 ;
737 [label="X[47] <= 11.5\ngini = 0.058\nsamples = 67\nvalue = [65, 2]"] ;
735 -> 737 ;
738 [label="X[32] <= 0.5\ngini = 0.278\nsamples = 12\nvalue = [10, 2]"] ;
737 -> 738 ;
739 [label="X[37] <= 0.5\ngini = 0.165\nsamples = 11\nvalue = [10, 1]"] ;
738 -> 739 ;
740 [label="gini = 0.0\nsamples = 9\nvalue = [9, 0]"] ;
739 -> 740 ;
741 [label="X[0] <= 0.5\ngini = 0.5\nsamples = 2\nvalue = [1, 1]"] ;
739 -> 741 ;
742 [label="gini = 0.0\nsamples = 1\nvalue = [1, 0]"] ;
741 -> 742 ;
743 [label="gini = 0.0\nsamples = 1\nvalue = [0, 1]"] ;
741 -> 743 ;
744 [label="gini = 0.0\nsamples = 1\nvalue = [0, 1]"] ;
738 -> 744 ;
745 [label="gini = 0.0\nsamples = 55\nvalue = [55, 0]"] ;
737 -> 745 ;
746 [label="gini = 0.0\nsamples = 348\nvalue = [348, 0]"] ;
726 -> 746 ;
747 [label="X[46] <= 2502.5\ngini = 0.133\nsamples = 14\nvalue = [13, 1]"] ;
725 -> 747 ;
748 [label="gini = 0.0\nsamples = 11\nvalue = [11, 0]"] ;
747 -> 748 ;
749 [label="X[21] <= 0.5\ngini = 0.444\nsamples = 3\nvalue = [2, 1]"] ;
747 -> 749 ;
750 [label="gini = 0.0\nsamples = 2\nvalue = [2, 0]"] ;
749 -> 750 ;
751 [label="gini = 0.0\nsamples = 1\nvalue = [0, 1]"] ;
749 -> 751 ;
752 [label="X[50] <= 434.5\ngini = 0.408\nsamples = 7\nvalue = [5, 2]"] ;
718 -> 752 ;
753 [label="gini = 0.0\nsamples = 2\nvalue = [0, 2]"] ;
752 -> 753 ;
754 [label="gini = 0.0\nsamples = 5\nvalue = [5, 0]"] ;
752 -> 754 ;
755 [label="X[50] <= 121.5\ngini = 0.32\nsamples = 25\nvalue = [20, 5]"] ;
717 -> 755 ;
756 [label="X[46] <= 418.0\ngini = 0.48\nsamples = 5\nvalue = [2, 3]"] ;
755 -> 756 ;
757 [label="gini = 0.0\nsamples = 2\nvalue = [2, 0]"] ;
756 -> 757 ;
758 [label="gini = 0.0\nsamples = 3\nvalue = [0, 3]"] ;
756 -> 758 ;
759 [label="X[4] <= 0.5\ngini = 0.18\nsamples = 20\nvalue = [18, 2]"] ;
755 -> 759 ;
760 [label="gini = 0.0\nsamples = 14\nvalue = [14, 0]"] ;
759 -> 760 ;
761 [label="X[48] <= 179.0\ngini = 0.444\nsamples = 6\nvalue = [4, 2]"] ;
759 -> 761 ;
762 [label="gini = 0.0\nsamples = 3\nvalue = [3, 0]"] ;
761 -> 762 ;
763 [label="X[45] <= 85.0\ngini = 0.444\nsamples = 3\nvalue = [1, 2]"] ;
761 -> 763 ;
764 [label="gini = 0.0\nsamples = 2\nvalue = [0, 2]"] ;
763 -> 764 ;
765 [label="gini = 0.0\nsamples = 1\nvalue = [1, 0]"] ;
763 -> 765 ;
766 [label="X[47] <= 17.5\ngini = 0.423\nsamples = 23\nvalue = [16, 7]"] ;
716 -> 766 ;
767 [label="X[48] <= 191.5\ngini = 0.142\nsamples = 13\nvalue = [12, 1]"] ;
766 -> 767 ;
768 [label="gini = 0.0\nsamples = 11\nvalue = [11, 0]"] ;
767 -> 768 ;
769 [label="X[46] <= 419.0\ngini = 0.5\nsamples = 2\nvalue = [1, 1]"] ;
767 -> 769 ;
770 [label="gini = 0.0\nsamples = 1\nvalue = [1, 0]"] ;
769 -> 770 ;
771 [label="gini = 0.0\nsamples = 1\nvalue = [0, 1]"] ;
769 -> 771 ;
772 [label="X[46] <= 554.5\ngini = 0.48\nsamples = 10\nvalue = [4, 6]"] ;
766 -> 772 ;
773 [label="gini = 0.0\nsamples = 4\nvalue = [0, 4]"] ;
772 -> 773 ;
774 [label="X[46] <= 1035.0\ngini = 0.444\nsamples = 6\nvalue = [4, 2]"] ;
772 -> 774 ;
775 [label="gini = 0.0\nsamples = 3\nvalue = [3, 0]"] ;
774 -> 775 ;
776 [label="X[23] <= 0.5\ngini = 0.444\nsamples = 3\nvalue = [1, 2]"] ;
774 -> 776 ;
777 [label="gini = 0.0\nsamples = 1\nvalue = [1, 0]"] ;
776 -> 777 ;
778 [label="gini = 0.0\nsamples = 2\nvalue = [0, 2]"] ;
776 -> 778 ;
779 [label="X[44] <= 27.5\ngini = 0.471\nsamples = 66\nvalue = [41, 25]"] ;
691 -> 779 ;
780 [label="X[47] <= 19.0\ngini = 0.32\nsamples = 5\nvalue = [1, 4]"] ;
779 -> 780 ;
781 [label="gini = 0.0\nsamples = 3\nvalue = [0, 3]"] ;
780 -> 781 ;
782 [label="X[8] <= 0.5\ngini = 0.5\nsamples = 2\nvalue = [1, 1]"] ;
780 -> 782 ;
783 [label="gini = 0.0\nsamples = 1\nvalue = [1, 0]"] ;
782 -> 783 ;
784 [label="gini = 0.0\nsamples = 1\nvalue = [0, 1]"] ;
782 -> 784 ;
785 [label="X[44] <= 33.5\ngini = 0.451\nsamples = 61\nvalue = [40, 21]"] ;
779 -> 785 ;
786 [label="X[47] <= 23.5\ngini = 0.311\nsamples = 26\nvalue = [21, 5]"] ;
785 -> 786 ;
787 [label="X[48] <= 203.5\ngini = 0.227\nsamples = 23\nvalue = [20, 3]"] ;
786 -> 787 ;
788 [label="X[50] <= 167.0\ngini = 0.165\nsamples = 22\nvalue = [20, 2]"] ;
787 -> 788 ;
789 [label="gini = 0.0\nsamples = 15\nvalue = [15, 0]"] ;
788 -> 789 ;
790 [label="X[48] <= 167.0\ngini = 0.408\nsamples = 7\nvalue = [5, 2]"] ;
788 -> 790 ;
791 [label="X[13] <= 0.5\ngini = 0.444\nsamples = 3\nvalue = [1, 2]"] ;
790 -> 791 ;
792 [label="gini = 0.0\nsamples = 2\nvalue = [0, 2]"] ;
791 -> 792 ;
793 [label="gini = 0.0\nsamples = 1\nvalue = [1, 0]"] ;
791 -> 793 ;
794 [label="gini = 0.0\nsamples = 4\nvalue = [4, 0]"] ;
790 -> 794 ;
795 [label="gini = 0.0\nsamples = 1\nvalue = [0, 1]"] ;
787 -> 795 ;
796 [label="X[50] <= 106.5\ngini = 0.444\nsamples = 3\nvalue = [1, 2]"] ;
786 -> 796 ;
797 [label="gini = 0.0\nsamples = 1\nvalue = [1, 0]"] ;
796 -> 797 ;
798 [label="gini = 0.0\nsamples = 2\nvalue = [0, 2]"] ;
796 -> 798 ;
799 [label="X[44] <= 58.5\ngini = 0.496\nsamples = 35\nvalue = [19, 16]"] ;
785 -> 799 ;
800 [label="X[50] <= 40.0\ngini = 0.499\nsamples = 31\nvalue = [15, 16]"] ;
799 -> 800 ;
801 [label="gini = 0.0\nsamples = 3\nvalue = [3, 0]"] ;
800 -> 801 ;
802 [label="X[41] <= 0.5\ngini = 0.49\nsamples = 28\nvalue = [12, 16]"] ;
800 -> 802 ;
803 [label="X[44] <= 40.5\ngini = 0.5\nsamples = 24\nvalue = [12, 12]"] ;
802 -> 803 ;
804 [label="X[50] <= 195.0\ngini = 0.426\nsamples = 13\nvalue = [9, 4]"] ;
803 -> 804 ;
805 [label="X[44] <= 36.5\ngini = 0.5\nsamples = 8\nvalue = [4, 4]"] ;
804 -> 805 ;
806 [label="gini = 0.0\nsamples = 2\nvalue = [0, 2]"] ;
805 -> 806 ;
807 [label="X[47] <= 12.5\ngini = 0.444\nsamples = 6\nvalue = [4, 2]"] ;
805 -> 807 ;
808 [label="gini = 0.0\nsamples = 2\nvalue = [0, 2]"] ;
807 -> 808 ;
809 [label="gini = 0.0\nsamples = 4\nvalue = [4, 0]"] ;
807 -> 809 ;
810 [label="gini = 0.0\nsamples = 5\nvalue = [5, 0]"] ;
804 -> 810 ;
811 [label="X[48] <= 178.0\ngini = 0.397\nsamples = 11\nvalue = [3, 8]"] ;
803 -> 811 ;
812 [label="gini = 0.0\nsamples = 5\nvalue = [0, 5]"] ;
811 -> 812 ;
813 [label="X[0] <= 0.5\ngini = 0.5\nsamples = 6\nvalue = [3, 3]"] ;
811 -> 813 ;
814 [label="X[47] <= 6.0\ngini = 0.375\nsamples = 4\nvalue = [1, 3]"] ;
813 -> 814 ;
815 [label="gini = 0.0\nsamples = 1\nvalue = [1, 0]"] ;
814 -> 815 ;
816 [label="gini = 0.0\nsamples = 3\nvalue = [0, 3]"] ;
814 -> 816 ;
817 [label="gini = 0.0\nsamples = 2\nvalue = [2, 0]"] ;
813 -> 817 ;
818 [label="gini = 0.0\nsamples = 4\nvalue = [0, 4]"] ;
802 -> 818 ;
819 [label="gini = 0.0\nsamples = 4\nvalue = [4, 0]"] ;
799 -> 819 ;
820 [label="X[47] <= 9.5\ngini = 0.119\nsamples = 1429\nvalue = [1338, 91]"] ;
8 -> 820 ;
821 [label="X[50] <= 349.5\ngini = 0.05\nsamples = 1275\nvalue = [1242, 33]"] ;
820 -> 821 ;
822 [label="X[44] <= 25.5\ngini = 0.048\nsamples = 1273\nvalue = [1242, 31]"] ;
821 -> 822 ;
823 [label="X[48] <= 178.5\ngini = 0.397\nsamples = 11\nvalue = [8, 3]"] ;
822 -> 823 ;
824 [label="X[21] <= 0.5\ngini = 0.198\nsamples = 9\nvalue = [8, 1]"] ;
823 -> 824 ;
825 [label="gini = 0.0\nsamples = 1\nvalue = [0, 1]"] ;
824 -> 825 ;
826 [label="gini = 0.0\nsamples = 8\nvalue = [8, 0]"] ;
824 -> 826 ;
827 [label="gini = 0.0\nsamples = 2\nvalue = [0, 2]"] ;
823 -> 827 ;
828 [label="X[48] <= 119.5\ngini = 0.043\nsamples = 1262\nvalue = [1234, 28]"] ;
822 -> 828 ;
829 [label="X[46] <= 989.0\ngini = 0.011\nsamples = 711\nvalue = [707, 4]"] ;
828 -> 829 ;
830 [label="X[51] <= 4.5\ngini = 0.004\nsamples = 540\nvalue = [539, 1]"] ;
829 -> 830 ;
831 [label="gini = 0.0\nsamples = 500\nvalue = [500, 0]"] ;
830 -> 831 ;
832 [label="X[47] <= 7.5\ngini = 0.049\nsamples = 40\nvalue = [39, 1]"] ;
830 -> 832 ;
833 [label="gini = 0.0\nsamples = 33\nvalue = [33, 0]"] ;
832 -> 833 ;
834 [label="X[51] <= 6.0\ngini = 0.245\nsamples = 7\nvalue = [6, 1]"] ;
832 -> 834 ;
835 [label="gini = 0.0\nsamples = 1\nvalue = [0, 1]"] ;
834 -> 835 ;
836 [label="gini = 0.0\nsamples = 6\nvalue = [6, 0]"] ;
834 -> 836 ;
837 [label="X[46] <= 993.0\ngini = 0.034\nsamples = 171\nvalue = [168, 3]"] ;
829 -> 837 ;
838 [label="gini = 0.0\nsamples = 1\nvalue = [0, 1]"] ;
837 -> 838 ;
839 [label="X[4] <= 0.5\ngini = 0.023\nsamples = 170\nvalue = [168, 2]"] ;
837 -> 839 ;
840 [label="gini = 0.0\nsamples = 129\nvalue = [129, 0]"] ;
839 -> 840 ;
841 [label="X[44] <= 29.5\ngini = 0.093\nsamples = 41\nvalue = [39, 2]"] ;
839 -> 841 ;
842 [label="X[44] <= 28.0\ngini = 0.32\nsamples = 5\nvalue = [4, 1]"] ;
841 -> 842 ;
843 [label="gini = 0.0\nsamples = 3\nvalue = [3, 0]"] ;
842 -> 843 ;
844 [label="X[47] <= 3.5\ngini = 0.5\nsamples = 2\nvalue = [1, 1]"] ;
842 -> 844 ;
845 [label="gini = 0.0\nsamples = 1\nvalue = [1, 0]"] ;
844 -> 845 ;
846 [label="gini = 0.0\nsamples = 1\nvalue = [0, 1]"] ;
844 -> 846 ;
847 [label="X[26] <= 0.5\ngini = 0.054\nsamples = 36\nvalue = [35, 1]"] ;
841 -> 847 ;
848 [label="gini = 0.0\nsamples = 30\nvalue = [30, 0]"] ;
847 -> 848 ;
849 [label="X[48] <= 61.0\ngini = 0.278\nsamples = 6\nvalue = [5, 1]"] ;
847 -> 849 ;
850 [label="gini = 0.0\nsamples = 5\nvalue = [5, 0]"] ;
849 -> 850 ;
851 [label="gini = 0.0\nsamples = 1\nvalue = [0, 1]"] ;
849 -> 851 ;
852 [label="X[17] <= 0.5\ngini = 0.083\nsamples = 551\nvalue = [527, 24]"] ;
828 -> 852 ;
853 [label="X[0] <= 0.5\ngini = 0.045\nsamples = 387\nvalue = [378, 9]"] ;
852 -> 853 ;
854 [label="X[48] <= 203.5\ngini = 0.025\nsamples = 322\nvalue = [318, 4]"] ;
853 -> 854 ;
855 [label="X[46] <= 316.0\ngini = 0.019\nsamples = 313\nvalue = [310, 3]"] ;
854 -> 855 ;
856 [label="X[46] <= 314.5\ngini = 0.043\nsamples = 137\nvalue = [134, 3]"] ;
855 -> 856 ;
857 [label="X[45] <= 10.0\ngini = 0.029\nsamples = 136\nvalue = [134, 2]"] ;
856 -> 857 ;
858 [label="X[44] <= 28.5\ngini = 0.153\nsamples = 12\nvalue = [11, 1]"] ;
857 -> 858 ;
859 [label="gini = 0.0\nsamples = 9\nvalue = [9, 0]"] ;
858 -> 859 ;
860 [label="X[22] <= 0.5\ngini = 0.444\nsamples = 3\nvalue = [2, 1]"] ;
858 -> 860 ;
861 [label="gini = 0.0\nsamples = 1\nvalue = [0, 1]"] ;
860 -> 861 ;
862 [label="gini = 0.0\nsamples = 2\nvalue = [2, 0]"] ;
860 -> 862 ;
863 [label="X[46] <= 197.5\ngini = 0.016\nsamples = 124\nvalue = [123, 1]"] ;
857 -> 863 ;
864 [label="gini = 0.0\nsamples = 99\nvalue = [99, 0]"] ;
863 -> 864 ;
865 [label="X[46] <= 204.5\ngini = 0.077\nsamples = 25\nvalue = [24, 1]"] ;
863 -> 865 ;
866 [label="gini = 0.0\nsamples = 1\nvalue = [0, 1]"] ;
865 -> 866 ;
867 [label="gini = 0.0\nsamples = 24\nvalue = [24, 0]"] ;
865 -> 867 ;
868 [label="gini = 0.0\nsamples = 1\nvalue = [0, 1]"] ;
856 -> 868 ;
869 [label="gini = 0.0\nsamples = 176\nvalue = [176, 0]"] ;
855 -> 869 ;
870 [label="X[46] <= 4122.5\ngini = 0.198\nsamples = 9\nvalue = [8, 1]"] ;
854 -> 870 ;
871 [label="gini = 0.0\nsamples = 8\nvalue = [8, 0]"] ;
870 -> 871 ;
872 [label="gini = 0.0\nsamples = 1\nvalue = [0, 1]"] ;
870 -> 872 ;
873 [label="X[44] <= 26.5\ngini = 0.142\nsamples = 65\nvalue = [60, 5]"] ;
853 -> 873 ;
874 [label="gini = 0.0\nsamples = 1\nvalue = [0, 1]"] ;
873 -> 874 ;
875 [label="X[49] <= 5.5\ngini = 0.117\nsamples = 64\nvalue = [60, 4]"] ;
873 -> 875 ;
876 [label="X[14] <= 0.5\ngini = 0.092\nsamples = 62\nvalue = [59, 3]"] ;
875 -> 876 ;
877 [label="gini = 0.0\nsamples = 41\nvalue = [41, 0]"] ;
876 -> 877 ;
878 [label="X[48] <= 123.5\ngini = 0.245\nsamples = 21\nvalue = [18, 3]"] ;
876 -> 878 ;
879 [label="gini = 0.0\nsamples = 1\nvalue = [0, 1]"] ;
878 -> 879 ;
880 [label="X[46] <= 720.5\ngini = 0.18\nsamples = 20\nvalue = [18, 2]"] ;
878 -> 880 ;
881 [label="gini = 0.0\nsamples = 15\nvalue = [15, 0]"] ;
880 -> 881 ;
882 [label="X[46] <= 2091.5\ngini = 0.48\nsamples = 5\nvalue = [3, 2]"] ;
880 -> 882 ;
883 [label="X[47] <= 4.0\ngini = 0.444\nsamples = 3\nvalue = [1, 2]"] ;
882 -> 883 ;
884 [label="gini = 0.0\nsamples = 2\nvalue = [0, 2]"] ;
883 -> 884 ;
885 [label="gini = 0.0\nsamples = 1\nvalue = [1, 0]"] ;
883 -> 885 ;
886 [label="gini = 0.0\nsamples = 2\nvalue = [2, 0]"] ;
882 -> 886 ;
887 [label="X[44] <= 34.5\ngini = 0.5\nsamples = 2\nvalue = [1, 1]"] ;
875 -> 887 ;
888 [label="gini = 0.0\nsamples = 1\nvalue = [1, 0]"] ;
887 -> 888 ;
889 [label="gini = 0.0\nsamples = 1\nvalue = [0, 1]"] ;
887 -> 889 ;
890 [label="X[21] <= 0.5\ngini = 0.166\nsamples = 164\nvalue = [149, 15]"] ;
852 -> 890 ;
891 [label="X[49] <= 8.5\ngini = 0.071\nsamples = 81\nvalue = [78, 3]"] ;
890 -> 891 ;
892 [label="X[1] <= 0.5\ngini = 0.049\nsamples = 80\nvalue = [78, 2]"] ;
891 -> 892 ;
893 [label="X[48] <= 191.0\ngini = 0.025\nsamples = 78\nvalue = [77, 1]"] ;
892 -> 893 ;
894 [label="gini = 0.0\nsamples = 64\nvalue = [64, 0]"] ;
893 -> 894 ;
895 [label="X[48] <= 192.5\ngini = 0.133\nsamples = 14\nvalue = [13, 1]"] ;
893 -> 895 ;
896 [label="X[43] <= 0.5\ngini = 0.5\nsamples = 2\nvalue = [1, 1]"] ;
895 -> 896 ;
897 [label="gini = 0.0\nsamples = 1\nvalue = [1, 0]"] ;
896 -> 897 ;
898 [label="gini = 0.0\nsamples = 1\nvalue = [0, 1]"] ;
896 -> 898 ;
899 [label="gini = 0.0\nsamples = 12\nvalue = [12, 0]"] ;
895 -> 899 ;
900 [label="X[44] <= 36.0\ngini = 0.5\nsamples = 2\nvalue = [1, 1]"] ;
892 -> 900 ;
901 [label="gini = 0.0\nsamples = 1\nvalue = [1, 0]"] ;
900 -> 901 ;
902 [label="gini = 0.0\nsamples = 1\nvalue = [0, 1]"] ;
900 -> 902 ;
903 [label="gini = 0.0\nsamples = 1\nvalue = [0, 1]"] ;
891 -> 903 ;
904 [label="X[46] <= 3955.0\ngini = 0.247\nsamples = 83\nvalue = [71, 12]"] ;
890 -> 904 ;
905 [label="X[48] <= 191.5\ngini = 0.221\nsamples = 79\nvalue = [69, 10]"] ;
904 -> 905 ;
906 [label="X[44] <= 49.5\ngini = 0.163\nsamples = 67\nvalue = [61, 6]"] ;
905 -> 906 ;
907 [label="X[46] <= 2231.0\ngini = 0.098\nsamples = 58\nvalue = [55, 3]"] ;
906 -> 907 ;
908 [label="X[48] <= 120.5\ngini = 0.037\nsamples = 53\nvalue = [52, 1]"] ;
907 -> 908 ;
909 [label="X[50] <= 164.0\ngini = 0.5\nsamples = 2\nvalue = [1, 1]"] ;
908 -> 909 ;
910 [label="gini = 0.0\nsamples = 1\nvalue = [0, 1]"] ;
909 -> 910 ;
911 [label="gini = 0.0\nsamples = 1\nvalue = [1, 0]"] ;
909 -> 911 ;
912 [label="gini = 0.0\nsamples = 51\nvalue = [51, 0]"] ;
908 -> 912 ;
913 [label="X[46] <= 2668.0\ngini = 0.48\nsamples = 5\nvalue = [3, 2]"] ;
907 -> 913 ;
914 [label="gini = 0.0\nsamples = 2\nvalue = [0, 2]"] ;
913 -> 914 ;
915 [label="gini = 0.0\nsamples = 3\nvalue = [3, 0]"] ;
913 -> 915 ;
916 [label="X[47] <= 4.5\ngini = 0.444\nsamples = 9\nvalue = [6, 3]"] ;
906 -> 916 ;
917 [label="gini = 0.0\nsamples = 6\nvalue = [6, 0]"] ;
916 -> 917 ;
918 [label="gini = 0.0\nsamples = 3\nvalue = [0, 3]"] ;
916 -> 918 ;
919 [label="X[48] <= 196.0\ngini = 0.444\nsamples = 12\nvalue = [8, 4]"] ;
905 -> 919 ;
920 [label="X[51] <= 6.5\ngini = 0.375\nsamples = 4\nvalue = [1, 3]"] ;
919 -> 920 ;
921 [label="gini = 0.0\nsamples = 3\nvalue = [0, 3]"] ;
920 -> 921 ;
922 [label="gini = 0.0\nsamples = 1\nvalue = [1, 0]"] ;
920 -> 922 ;
923 [label="X[48] <= 205.0\ngini = 0.219\nsamples = 8\nvalue = [7, 1]"] ;
919 -> 923 ;
924 [label="gini = 0.0\nsamples = 6\nvalue = [6, 0]"] ;
923 -> 924 ;
925 [label="X[46] <= 1709.5\ngini = 0.5\nsamples = 2\nvalue = [1, 1]"] ;
923 -> 925 ;
926 [label="gini = 0.0\nsamples = 1\nvalue = [0, 1]"] ;
925 -> 926 ;
927 [label="gini = 0.0\nsamples = 1\nvalue = [1, 0]"] ;
925 -> 927 ;
928 [label="X[9] <= 0.5\ngini = 0.5\nsamples = 4\nvalue = [2, 2]"] ;
904 -> 928 ;
929 [label="gini = 0.0\nsamples = 2\nvalue = [2, 0]"] ;
928 -> 929 ;
930 [label="gini = 0.0\nsamples = 2\nvalue = [0, 2]"] ;
928 -> 930 ;
931 [label="gini = 0.0\nsamples = 2\nvalue = [0, 2]"] ;
821 -> 931 ;
932 [label="X[48] <= 74.5\ngini = 0.47\nsamples = 154\nvalue = [96, 58]"] ;
820 -> 932 ;
933 [label="X[50] <= 304.5\ngini = 0.145\nsamples = 38\nvalue = [35, 3]"] ;
932 -> 933 ;
934 [label="X[48] <= 64.5\ngini = 0.102\nsamples = 37\nvalue = [35, 2]"] ;
933 -> 934 ;
935 [label="gini = 0.0\nsamples = 27\nvalue = [27, 0]"] ;
934 -> 935 ;
936 [label="X[44] <= 37.5\ngini = 0.32\nsamples = 10\nvalue = [8, 2]"] ;
934 -> 936 ;
937 [label="X[16] <= 0.5\ngini = 0.444\nsamples = 3\nvalue = [1, 2]"] ;
936 -> 937 ;
938 [label="gini = 0.0\nsamples = 2\nvalue = [0, 2]"] ;
937 -> 938 ;
939 [label="gini = 0.0\nsamples = 1\nvalue = [1, 0]"] ;
937 -> 939 ;
940 [label="gini = 0.0\nsamples = 7\nvalue = [7, 0]"] ;
936 -> 940 ;
941 [label="gini = 0.0\nsamples = 1\nvalue = [0, 1]"] ;
933 -> 941 ;
942 [label="X[40] <= 0.5\ngini = 0.499\nsamples = 116\nvalue = [61, 55]"] ;
932 -> 942 ;
943 [label="X[48] <= 130.0\ngini = 0.494\nsamples = 81\nvalue = [36, 45]"] ;
942 -> 943 ;
944 [label="X[46] <= 276.5\ngini = 0.488\nsamples = 45\nvalue = [26, 19]"] ;
943 -> 944 ;
945 [label="X[9] <= 0.5\ngini = 0.153\nsamples = 12\nvalue = [11, 1]"] ;
944 -> 945 ;
946 [label="gini = 0.0\nsamples = 10\nvalue = [10, 0]"] ;
945 -> 946 ;
947 [label="X[46] <= 113.5\ngini = 0.5\nsamples = 2\nvalue = [1, 1]"] ;
945 -> 947 ;
948 [label="gini = 0.0\nsamples = 1\nvalue = [1, 0]"] ;
947 -> 948 ;
949 [label="gini = 0.0\nsamples = 1\nvalue = [0, 1]"] ;
947 -> 949 ;
950 [label="X[16] <= 0.5\ngini = 0.496\nsamples = 33\nvalue = [15, 18]"] ;
944 -> 950 ;
951 [label="X[48] <= 98.5\ngini = 0.444\nsamples = 15\nvalue = [10, 5]"] ;
950 -> 951 ;
952 [label="X[44] <= 31.0\ngini = 0.32\nsamples = 5\nvalue = [1, 4]"] ;
951 -> 952 ;
953 [label="gini = 0.0\nsamples = 1\nvalue = [1, 0]"] ;
952 -> 953 ;
954 [label="gini = 0.0\nsamples = 4\nvalue = [0, 4]"] ;
952 -> 954 ;
955 [label="X[46] <= 8426.5\ngini = 0.18\nsamples = 10\nvalue = [9, 1]"] ;
951 -> 955 ;
956 [label="gini = 0.0\nsamples = 9\nvalue = [9, 0]"] ;
955 -> 956 ;
957 [label="gini = 0.0\nsamples = 1\nvalue = [0, 1]"] ;
955 -> 957 ;
958 [label="X[25] <= 0.5\ngini = 0.401\nsamples = 18\nvalue = [5, 13]"] ;
950 -> 958 ;
959 [label="gini = 0.0\nsamples = 2\nvalue = [2, 0]"] ;
958 -> 959 ;
960 [label="X[47] <= 10.5\ngini = 0.305\nsamples = 16\nvalue = [3, 13]"] ;
958 -> 960 ;
961 [label="gini = 0.0\nsamples = 1\nvalue = [1, 0]"] ;
960 -> 961 ;
962 [label="X[44] <= 27.0\ngini = 0.231\nsamples = 15\nvalue = [2, 13]"] ;
960 -> 962 ;
963 [label="X[47] <= 21.5\ngini = 0.5\nsamples = 4\nvalue = [2, 2]"] ;
962 -> 963 ;
964 [label="X[22] <= 0.5\ngini = 0.444\nsamples = 3\nvalue = [1, 2]"] ;
963 -> 964 ;
965 [label="gini = 0.0\nsamples = 2\nvalue = [0, 2]"] ;
964 -> 965 ;
966 [label="gini = 0.0\nsamples = 1\nvalue = [1, 0]"] ;
964 -> 966 ;
967 [label="gini = 0.0\nsamples = 1\nvalue = [1, 0]"] ;
963 -> 967 ;
968 [label="gini = 0.0\nsamples = 11\nvalue = [0, 11]"] ;
962 -> 968 ;
969 [label="X[48] <= 173.0\ngini = 0.401\nsamples = 36\nvalue = [10, 26]"] ;
943 -> 969 ;
970 [label="X[25] <= 0.5\ngini = 0.219\nsamples = 24\nvalue = [3, 21]"] ;
969 -> 970 ;
971 [label="gini = 0.0\nsamples = 1\nvalue = [1, 0]"] ;
970 -> 971 ;
972 [label="X[10] <= 0.5\ngini = 0.159\nsamples = 23\nvalue = [2, 21]"] ;
970 -> 972 ;
973 [label="X[47] <= 26.5\ngini = 0.091\nsamples = 21\nvalue = [1, 20]"] ;
972 -> 973 ;
974 [label="gini = 0.0\nsamples = 18\nvalue = [0, 18]"] ;
973 -> 974 ;
975 [label="X[46] <= 762.5\ngini = 0.444\nsamples = 3\nvalue = [1, 2]"] ;
973 -> 975 ;
976 [label="gini = 0.0\nsamples = 1\nvalue = [1, 0]"] ;
975 -> 976 ;
977 [label="gini = 0.0\nsamples = 2\nvalue = [0, 2]"] ;
975 -> 977 ;
978 [label="X[18] <= 0.5\ngini = 0.5\nsamples = 2\nvalue = [1, 1]"] ;
972 -> 978 ;
979 [label="gini = 0.0\nsamples = 1\nvalue = [0, 1]"] ;
978 -> 979 ;
980 [label="gini = 0.0\nsamples = 1\nvalue = [1, 0]"] ;
978 -> 980 ;
981 [label="X[46] <= 3703.5\ngini = 0.486\nsamples = 12\nvalue = [7, 5]"] ;
969 -> 981 ;
982 [label="X[49] <= 1.5\ngini = 0.42\nsamples = 10\nvalue = [7, 3]"] ;
981 -> 982 ;
983 [label="gini = 0.0\nsamples = 5\nvalue = [5, 0]"] ;
982 -> 983 ;
984 [label="X[13] <= 0.5\ngini = 0.48\nsamples = 5\nvalue = [2, 3]"] ;
982 -> 984 ;
985 [label="gini = 0.0\nsamples = 3\nvalue = [0, 3]"] ;
984 -> 985 ;
986 [label="gini = 0.0\nsamples = 2\nvalue = [2, 0]"] ;
984 -> 986 ;
987 [label="gini = 0.0\nsamples = 2\nvalue = [0, 2]"] ;
981 -> 987 ;
988 [label="X[8] <= 0.5\ngini = 0.408\nsamples = 35\nvalue = [25, 10]"] ;
942 -> 988 ;
989 [label="X[48] <= 156.5\ngini = 0.367\nsamples = 33\nvalue = [25, 8]"] ;
988 -> 989 ;
990 [label="X[51] <= 6.0\ngini = 0.252\nsamples = 27\nvalue = [23, 4]"] ;
989 -> 990 ;
991 [label="X[0] <= 0.5\ngini = 0.153\nsamples = 24\nvalue = [22, 2]"] ;
990 -> 991 ;
992 [label="gini = 0.0\nsamples = 19\nvalue = [19, 0]"] ;
991 -> 992 ;
993 [label="X[47] <= 15.0\ngini = 0.48\nsamples = 5\nvalue = [3, 2]"] ;
991 -> 993 ;
994 [label="X[14] <= 0.5\ngini = 0.444\nsamples = 3\nvalue = [1, 2]"] ;
993 -> 994 ;
995 [label="gini = 0.0\nsamples = 2\nvalue = [0, 2]"] ;
994 -> 995 ;
996 [label="gini = 0.0\nsamples = 1\nvalue = [1, 0]"] ;
994 -> 996 ;
997 [label="gini = 0.0\nsamples = 2\nvalue = [2, 0]"] ;
993 -> 997 ;
998 [label="X[17] <= 0.5\ngini = 0.444\nsamples = 3\nvalue = [1, 2]"] ;
990 -> 998 ;
999 [label="gini = 0.0\nsamples = 1\nvalue = [1, 0]"] ;
998 -> 999 ;
1000 [label="gini = 0.0\nsamples = 2\nvalue = [0, 2]"] ;
998 -> 1000 ;
1001 [label="X[48] <= 195.0\ngini = 0.444\nsamples = 6\nvalue = [2, 4]"] ;
989 -> 1001 ;
1002 [label="gini = 0.0\nsamples = 4\nvalue = [0, 4]"] ;
1001 -> 1002 ;
1003 [label="gini = 0.0\nsamples = 2\nvalue = [2, 0]"] ;
1001 -> 1003 ;
1004 [label="gini = 0.0\nsamples = 2\nvalue = [0, 2]"] ;
988 -> 1004 ;
1005 [label="X[48] <= 168.5\ngini = 0.263\nsamples = 173\nvalue = [146, 27]"] ;
7 -> 1005 ;
1006 [label="X[48] <= 81.5\ngini = 0.168\nsamples = 140\nvalue = [127, 13]"] ;
1005 -> 1006 ;
1007 [label="gini = 0.0\nsamples = 53\nvalue = [53, 0]"] ;
1006 -> 1007 ;
1008 [label="X[47] <= 7.5\ngini = 0.254\nsamples = 87\nvalue = [74, 13]"] ;
1006 -> 1008 ;
1009 [label="X[7] <= 0.5\ngini = 0.105\nsamples = 36\nvalue = [34, 2]"] ;
1008 -> 1009 ;
1010 [label="X[48] <= 84.0\ngini = 0.057\nsamples = 34\nvalue = [33, 1]"] ;
1009 -> 1010 ;
1011 [label="X[44] <= 40.0\ngini = 0.5\nsamples = 2\nvalue = [1, 1]"] ;
1010 -> 1011 ;
1012 [label="gini = 0.0\nsamples = 1\nvalue = [0, 1]"] ;
1011 -> 1012 ;
1013 [label="gini = 0.0\nsamples = 1\nvalue = [1, 0]"] ;
1011 -> 1013 ;
1014 [label="gini = 0.0\nsamples = 32\nvalue = [32, 0]"] ;
1010 -> 1014 ;
1015 [label="X[21] <= 0.5\ngini = 0.5\nsamples = 2\nvalue = [1, 1]"] ;
1009 -> 1015 ;
1016 [label="gini = 0.0\nsamples = 1\nvalue = [0, 1]"] ;
1015 -> 1016 ;
1017 [label="gini = 0.0\nsamples = 1\nvalue = [1, 0]"] ;
1015 -> 1017 ;
1018 [label="X[1] <= 0.5\ngini = 0.338\nsamples = 51\nvalue = [40, 11]"] ;
1008 -> 1018 ;
1019 [label="X[47] <= 19.5\ngini = 0.32\nsamples = 50\nvalue = [40, 10]"] ;
1018 -> 1019 ;
1020 [label="X[46] <= 479.5\ngini = 0.408\nsamples = 28\nvalue = [20, 8]"] ;
1019 -> 1020 ;
1021 [label="X[50] <= 405.5\ngini = 0.198\nsamples = 18\nvalue = [16, 2]"] ;
1020 -> 1021 ;
1022 [label="X[48] <= 101.5\ngini = 0.111\nsamples = 17\nvalue = [16, 1]"] ;
1021 -> 1022 ;
1023 [label="X[48] <= 99.5\ngini = 0.375\nsamples = 4\nvalue = [3, 1]"] ;
1022 -> 1023 ;
1024 [label="gini = 0.0\nsamples = 3\nvalue = [3, 0]"] ;
1023 -> 1024 ;
1025 [label="gini = 0.0\nsamples = 1\nvalue = [0, 1]"] ;
1023 -> 1025 ;
1026 [label="gini = 0.0\nsamples = 13\nvalue = [13, 0]"] ;
1022 -> 1026 ;
1027 [label="gini = 0.0\nsamples = 1\nvalue = [0, 1]"] ;
1021 -> 1027 ;
1028 [label="X[40] <= 0.5\ngini = 0.48\nsamples = 10\nvalue = [4, 6]"] ;
1020 -> 1028 ;
1029 [label="X[23] <= 0.5\ngini = 0.245\nsamples = 7\nvalue = [1, 6]"] ;
1028 -> 1029 ;
1030 [label="gini = 0.0\nsamples = 1\nvalue = [1, 0]"] ;
1029 -> 1030 ;
1031 [label="gini = 0.0\nsamples = 6\nvalue = [0, 6]"] ;
1029 -> 1031 ;
1032 [label="gini = 0.0\nsamples = 3\nvalue = [3, 0]"] ;
1028 -> 1032 ;
1033 [label="X[46] <= 89.0\ngini = 0.165\nsamples = 22\nvalue = [20, 2]"] ;
1019 -> 1033 ;
1034 [label="X[48] <= 147.0\ngini = 0.444\nsamples = 6\nvalue = [4, 2]"] ;
1033 -> 1034 ;
1035 [label="gini = 0.0\nsamples = 4\nvalue = [4, 0]"] ;
1034 -> 1035 ;
1036 [label="gini = 0.0\nsamples = 2\nvalue = [0, 2]"] ;
1034 -> 1036 ;
1037 [label="gini = 0.0\nsamples = 16\nvalue = [16, 0]"] ;
1033 -> 1037 ;
1038 [label="gini = 0.0\nsamples = 1\nvalue = [0, 1]"] ;
1018 -> 1038 ;
1039 [label="X[51] <= 2.5\ngini = 0.489\nsamples = 33\nvalue = [19, 14]"] ;
1005 -> 1039 ;
1040 [label="X[50] <= 100.5\ngini = 0.436\nsamples = 28\nvalue = [19, 9]"] ;
1039 -> 1040 ;
1041 [label="X[49] <= 1.5\ngini = 0.476\nsamples = 23\nvalue = [14, 9]"] ;
1040 -> 1041 ;
1042 [label="X[4] <= 0.5\ngini = 0.5\nsamples = 16\nvalue = [8, 8]"] ;
1041 -> 1042 ;
1043 [label="X[47] <= 21.0\ngini = 0.463\nsamples = 11\nvalue = [7, 4]"] ;
1042 -> 1043 ;
1044 [label="X[48] <= 190.5\ngini = 0.49\nsamples = 7\nvalue = [3, 4]"] ;
1043 -> 1044 ;
1045 [label="X[1] <= 0.5\ngini = 0.444\nsamples = 6\nvalue = [2, 4]"] ;
1044 -> 1045 ;
1046 [label="X[46] <= 760.0\ngini = 0.32\nsamples = 5\nvalue = [1, 4]"] ;
1045 -> 1046 ;
1047 [label="gini = 0.0\nsamples = 3\nvalue = [0, 3]"] ;
1046 -> 1047 ;
1048 [label="X[14] <= 0.5\ngini = 0.5\nsamples = 2\nvalue = [1, 1]"] ;
1046 -> 1048 ;
1049 [label="gini = 0.0\nsamples = 1\nvalue = [0, 1]"] ;
1048 -> 1049 ;
1050 [label="gini = 0.0\nsamples = 1\nvalue = [1, 0]"] ;
1048 -> 1050 ;
1051 [label="gini = 0.0\nsamples = 1\nvalue = [1, 0]"] ;
1045 -> 1051 ;
1052 [label="gini = 0.0\nsamples = 1\nvalue = [1, 0]"] ;
1044 -> 1052 ;
1053 [label="gini = 0.0\nsamples = 4\nvalue = [4, 0]"] ;
1043 -> 1053 ;
1054 [label="X[44] <= 29.0\ngini = 0.32\nsamples = 5\nvalue = [1, 4]"] ;
1042 -> 1054 ;
1055 [label="gini = 0.0\nsamples = 3\nvalue = [0, 3]"] ;
1054 -> 1055 ;
1056 [label="X[45] <= 50.0\ngini = 0.5\nsamples = 2\nvalue = [1, 1]"] ;
1054 -> 1056 ;
1057 [label="gini = 0.0\nsamples = 1\nvalue = [1, 0]"] ;
1056 -> 1057 ;
1058 [label="gini = 0.0\nsamples = 1\nvalue = [0, 1]"] ;
1056 -> 1058 ;
1059 [label="X[25] <= 0.5\ngini = 0.245\nsamples = 7\nvalue = [6, 1]"] ;
1041 -> 1059 ;
1060 [label="gini = 0.0\nsamples = 1\nvalue = [0, 1]"] ;
1059 -> 1060 ;
1061 [label="gini = 0.0\nsamples = 6\nvalue = [6, 0]"] ;
1059 -> 1061 ;
1062 [label="gini = 0.0\nsamples = 5\nvalue = [5, 0]"] ;
1040 -> 1062 ;
1063 [label="gini = 0.0\nsamples = 5\nvalue = [0, 5]"] ;
1039 -> 1063 ;
1064 [label="X[22] <= 0.5\ngini = 0.149\nsamples = 1234\nvalue = [1134, 100]"] ;
6 -> 1064 ;
1065 [label="X[48] <= 103.5\ngini = 0.37\nsamples = 334\nvalue = [252, 82]"] ;
1064 -> 1065 ;
1066 [label="X[4] <= 0.5\ngini = 0.107\nsamples = 106\nvalue = [100, 6]"] ;
1065 -> 1066 ;
1067 [label="X[46] <= 3358.5\ngini = 0.046\nsamples = 84\nvalue = [82, 2]"] ;
1066 -> 1067 ;
1068 [label="gini = 0.0\nsamples = 73\nvalue = [73, 0]"] ;
1067 -> 1068 ;
1069 [label="X[46] <= 3443.5\ngini = 0.298\nsamples = 11\nvalue = [9, 2]"] ;
1067 -> 1069 ;
1070 [label="gini = 0.0\nsamples = 1\nvalue = [0, 1]"] ;
1069 -> 1070 ;
1071 [label="X[44] <= 58.0\ngini = 0.18\nsamples = 10\nvalue = [9, 1]"] ;
1069 -> 1071 ;
1072 [label="gini = 0.0\nsamples = 8\nvalue = [8, 0]"] ;
1071 -> 1072 ;
1073 [label="X[16] <= 0.5\ngini = 0.5\nsamples = 2\nvalue = [1, 1]"] ;
1071 -> 1073 ;
1074 [label="gini = 0.0\nsamples = 1\nvalue = [1, 0]"] ;
1073 -> 1074 ;
1075 [label="gini = 0.0\nsamples = 1\nvalue = [0, 1]"] ;
1073 -> 1075 ;
1076 [label="X[46] <= 57.0\ngini = 0.298\nsamples = 22\nvalue = [18, 4]"] ;
1066 -> 1076 ;
1077 [label="gini = 0.0\nsamples = 2\nvalue = [0, 2]"] ;
1076 -> 1077 ;
1078 [label="X[48] <= 96.5\ngini = 0.18\nsamples = 20\nvalue = [18, 2]"] ;
1076 -> 1078 ;
1079 [label="X[46] <= 221.5\ngini = 0.105\nsamples = 18\nvalue = [17, 1]"] ;
1078 -> 1079 ;
1080 [label="X[47] <= 22.5\ngini = 0.444\nsamples = 3\nvalue = [2, 1]"] ;
1079 -> 1080 ;
1081 [label="gini = 0.0\nsamples = 1\nvalue = [0, 1]"] ;
1080 -> 1081 ;
1082 [label="gini = 0.0\nsamples = 2\nvalue = [2, 0]"] ;
1080 -> 1082 ;
1083 [label="gini = 0.0\nsamples = 15\nvalue = [15, 0]"] ;
1079 -> 1083 ;
1084 [label="X[51] <= 2.0\ngini = 0.5\nsamples = 2\nvalue = [1, 1]"] ;
1078 -> 1084 ;
1085 [label="gini = 0.0\nsamples = 1\nvalue = [0, 1]"] ;
1084 -> 1085 ;
1086 [label="gini = 0.0\nsamples = 1\nvalue = [1, 0]"] ;
1084 -> 1086 ;
1087 [label="X[47] <= 26.5\ngini = 0.444\nsamples = 228\nvalue = [152, 76]"] ;
1065 -> 1087 ;
1088 [label="X[44] <= 32.5\ngini = 0.495\nsamples = 162\nvalue = [89, 73]"] ;
1087 -> 1088 ;
1089 [label="X[25] <= 0.5\ngini = 0.475\nsamples = 67\nvalue = [26, 41]"] ;
1088 -> 1089 ;
1090 [label="gini = 0.0\nsamples = 4\nvalue = [4, 0]"] ;
1089 -> 1090 ;
1091 [label="X[48] <= 178.5\ngini = 0.455\nsamples = 63\nvalue = [22, 41]"] ;
1089 -> 1091 ;
1092 [label="X[46] <= 2007.0\ngini = 0.482\nsamples = 52\nvalue = [21, 31]"] ;
1091 -> 1092 ;
1093 [label="X[46] <= 748.5\ngini = 0.5\nsamples = 39\nvalue = [19, 20]"] ;
1092 -> 1093 ;
1094 [label="X[47] <= 15.5\ngini = 0.452\nsamples = 29\nvalue = [10, 19]"] ;
1093 -> 1094 ;
1095 [label="X[46] <= 562.5\ngini = 0.165\nsamples = 11\nvalue = [1, 10]"] ;
1094 -> 1095 ;
1096 [label="gini = 0.0\nsamples = 9\nvalue = [0, 9]"] ;
1095 -> 1096 ;
1097 [label="X[4] <= 0.5\ngini = 0.5\nsamples = 2\nvalue = [1, 1]"] ;
1095 -> 1097 ;
1098 [label="gini = 0.0\nsamples = 1\nvalue = [0, 1]"] ;
1097 -> 1098 ;
1099 [label="gini = 0.0\nsamples = 1\nvalue = [1, 0]"] ;
1097 -> 1099 ;
1100 [label="X[44] <= 24.5\ngini = 0.5\nsamples = 18\nvalue = [9, 9]"] ;
1094 -> 1100 ;
1101 [label="gini = 0.0\nsamples = 4\nvalue = [4, 0]"] ;
1100 -> 1101 ;
1102 [label="X[44] <= 27.5\ngini = 0.459\nsamples = 14\nvalue = [5, 9]"] ;
1100 -> 1102 ;
1103 [label="gini = 0.0\nsamples = 6\nvalue = [0, 6]"] ;
1102 -> 1103 ;
1104 [label="X[48] <= 143.5\ngini = 0.469\nsamples = 8\nvalue = [5, 3]"] ;
1102 -> 1104 ;
1105 [label="gini = 0.0\nsamples = 3\nvalue = [3, 0]"] ;
1104 -> 1105 ;
1106 [label="X[1] <= 0.5\ngini = 0.48\nsamples = 5\nvalue = [2, 3]"] ;
1104 -> 1106 ;
1107 [label="gini = 0.0\nsamples = 3\nvalue = [0, 3]"] ;
1106 -> 1107 ;
1108 [label="gini = 0.0\nsamples = 2\nvalue = [2, 0]"] ;
1106 -> 1108 ;
1109 [label="X[14] <= 0.5\ngini = 0.18\nsamples = 10\nvalue = [9, 1]"] ;
1093 -> 1109 ;
1110 [label="gini = 0.0\nsamples = 1\nvalue = [0, 1]"] ;
1109 -> 1110 ;
1111 [label="gini = 0.0\nsamples = 9\nvalue = [9, 0]"] ;
1109 -> 1111 ;
1112 [label="X[46] <= 7452.0\ngini = 0.26\nsamples = 13\nvalue = [2, 11]"] ;
1092 -> 1112 ;
1113 [label="gini = 0.0\nsamples = 10\nvalue = [0, 10]"] ;
1112 -> 1113 ;
1114 [label="X[47] <= 14.5\ngini = 0.444\nsamples = 3\nvalue = [2, 1]"] ;
1112 -> 1114 ;
1115 [label="gini = 0.0\nsamples = 2\nvalue = [2, 0]"] ;
1114 -> 1115 ;
1116 [label="gini = 0.0\nsamples = 1\nvalue = [0, 1]"] ;
1114 -> 1116 ;
1117 [label="X[1] <= 0.5\ngini = 0.165\nsamples = 11\nvalue = [1, 10]"] ;
1091 -> 1117 ;
1118 [label="gini = 0.0\nsamples = 10\nvalue = [0, 10]"] ;
1117 -> 1118 ;
1119 [label="gini = 0.0\nsamples = 1\nvalue = [1, 0]"] ;
1117 -> 1119 ;
1120 [label="X[27] <= 0.5\ngini = 0.447\nsamples = 95\nvalue = [63, 32]"] ;
1088 -> 1120 ;
1121 [label="X[46] <= 198.0\ngini = 0.432\nsamples = 92\nvalue = [63, 29]"] ;
1120 -> 1121 ;
1122 [label="X[50] <= 351.5\ngini = 0.236\nsamples = 22\nvalue = [19, 3]"] ;
1121 -> 1122 ;
1123 [label="X[3] <= 0.5\ngini = 0.172\nsamples = 21\nvalue = [19, 2]"] ;
1122 -> 1123 ;
1124 [label="X[13] <= 0.5\ngini = 0.1\nsamples = 19\nvalue = [18, 1]"] ;
1123 -> 1124 ;
1125 [label="X[48] <= 125.0\ngini = 0.444\nsamples = 3\nvalue = [2, 1]"] ;
1124 -> 1125 ;
1126 [label="gini = 0.0\nsamples = 2\nvalue = [2, 0]"] ;
1125 -> 1126 ;
1127 [label="gini = 0.0\nsamples = 1\nvalue = [0, 1]"] ;
1125 -> 1127 ;
1128 [label="gini = 0.0\nsamples = 16\nvalue = [16, 0]"] ;
1124 -> 1128 ;
1129 [label="X[48] <= 167.0\ngini = 0.5\nsamples = 2\nvalue = [1, 1]"] ;
1123 -> 1129 ;
1130 [label="gini = 0.0\nsamples = 1\nvalue = [1, 0]"] ;
1129 -> 1130 ;
1131 [label="gini = 0.0\nsamples = 1\nvalue = [0, 1]"] ;
1129 -> 1131 ;
1132 [label="gini = 0.0\nsamples = 1\nvalue = [0, 1]"] ;
1122 -> 1132 ;
1133 [label="X[50] <= 252.5\ngini = 0.467\nsamples = 70\nvalue = [44, 26]"] ;
1121 -> 1133 ;
1134 [label="X[44] <= 34.5\ngini = 0.489\nsamples = 61\nvalue = [35, 26]"] ;
1133 -> 1134 ;
1135 [label="X[46] <= 297.5\ngini = 0.473\nsamples = 13\nvalue = [5, 8]"] ;
1134 -> 1135 ;
1136 [label="gini = 0.0\nsamples = 2\nvalue = [2, 0]"] ;
1135 -> 1136 ;
1137 [label="X[47] <= 14.5\ngini = 0.397\nsamples = 11\nvalue = [3, 8]"] ;
1135 -> 1137 ;
1138 [label="X[48] <= 125.0\ngini = 0.48\nsamples = 5\nvalue = [3, 2]"] ;
1137 -> 1138 ;
1139 [label="gini = 0.0\nsamples = 2\nvalue = [2, 0]"] ;
1138 -> 1139 ;
1140 [label="X[46] <= 3864.5\ngini = 0.444\nsamples = 3\nvalue = [1, 2]"] ;
1138 -> 1140 ;
1141 [label="gini = 0.0\nsamples = 2\nvalue = [0, 2]"] ;
1140 -> 1141 ;
1142 [label="gini = 0.0\nsamples = 1\nvalue = [1, 0]"] ;
1140 -> 1142 ;
1143 [label="gini = 0.0\nsamples = 6\nvalue = [0, 6]"] ;
1137 -> 1143 ;
1144 [label="X[46] <= 238.5\ngini = 0.469\nsamples = 48\nvalue = [30, 18]"] ;
1134 -> 1144 ;
1145 [label="gini = 0.0\nsamples = 2\nvalue = [0, 2]"] ;
1144 -> 1145 ;
1146 [label="X[48] <= 143.5\ngini = 0.454\nsamples = 46\nvalue = [30, 16]"] ;
1144 -> 1146 ;
1147 [label="X[47] <= 19.5\ngini = 0.291\nsamples = 17\nvalue = [14, 3]"] ;
1146 -> 1147 ;
1148 [label="gini = 0.0\nsamples = 11\nvalue = [11, 0]"] ;
1147 -> 1148 ;
1149 [label="X[46] <= 624.5\ngini = 0.5\nsamples = 6\nvalue = [3, 3]"] ;
1147 -> 1149 ;
1150 [label="gini = 0.0\nsamples = 2\nvalue = [0, 2]"] ;
1149 -> 1150 ;
1151 [label="X[48] <= 120.5\ngini = 0.375\nsamples = 4\nvalue = [3, 1]"] ;
1149 -> 1151 ;
1152 [label="X[44] <= 44.0\ngini = 0.5\nsamples = 2\nvalue = [1, 1]"] ;
1151 -> 1152 ;
1153 [label="gini = 0.0\nsamples = 1\nvalue = [1, 0]"] ;
1152 -> 1153 ;
1154 [label="gini = 0.0\nsamples = 1\nvalue = [0, 1]"] ;
1152 -> 1154 ;
1155 [label="gini = 0.0\nsamples = 2\nvalue = [2, 0]"] ;
1151 -> 1155 ;
1156 [label="X[46] <= 8833.5\ngini = 0.495\nsamples = 29\nvalue = [16, 13]"] ;
1146 -> 1156 ;
1157 [label="X[16] <= 0.5\ngini = 0.473\nsamples = 26\nvalue = [16, 10]"] ;
1156 -> 1157 ;
1158 [label="X[48] <= 192.5\ngini = 0.5\nsamples = 20\nvalue = [10, 10]"] ;
1157 -> 1158 ;
1159 [label="X[44] <= 44.5\ngini = 0.494\nsamples = 18\nvalue = [10, 8]"] ;
1158 -> 1159 ;
1160 [label="X[48] <= 167.0\ngini = 0.469\nsamples = 8\nvalue = [3, 5]"] ;
1159 -> 1160 ;
1161 [label="gini = 0.0\nsamples = 4\nvalue = [0, 4]"] ;
1160 -> 1161 ;
1162 [label="X[47] <= 15.0\ngini = 0.375\nsamples = 4\nvalue = [3, 1]"] ;
1160 -> 1162 ;
1163 [label="gini = 0.0\nsamples = 1\nvalue = [0, 1]"] ;
1162 -> 1163 ;
1164 [label="gini = 0.0\nsamples = 3\nvalue = [3, 0]"] ;
1162 -> 1164 ;
1165 [label="X[44] <= 49.5\ngini = 0.42\nsamples = 10\nvalue = [7, 3]"] ;
1159 -> 1165 ;
1166 [label="gini = 0.0\nsamples = 4\nvalue = [4, 0]"] ;
1165 -> 1166 ;
1167 [label="X[44] <= 50.5\ngini = 0.5\nsamples = 6\nvalue = [3, 3]"] ;
1165 -> 1167 ;
1168 [label="gini = 0.0\nsamples = 2\nvalue = [0, 2]"] ;
1167 -> 1168 ;
1169 [label="X[44] <= 58.5\ngini = 0.375\nsamples = 4\nvalue = [3, 1]"] ;
1167 -> 1169 ;
1170 [label="gini = 0.0\nsamples = 3\nvalue = [3, 0]"] ;
1169 -> 1170 ;
1171 [label="gini = 0.0\nsamples = 1\nvalue = [0, 1]"] ;
1169 -> 1171 ;
1172 [label="gini = 0.0\nsamples = 2\nvalue = [0, 2]"] ;
1158 -> 1172 ;
1173 [label="gini = 0.0\nsamples = 6\nvalue = [6, 0]"] ;
1157 -> 1173 ;
1174 [label="gini = 0.0\nsamples = 3\nvalue = [0, 3]"] ;
1156 -> 1174 ;
1175 [label="gini = 0.0\nsamples = 9\nvalue = [9, 0]"] ;
1133 -> 1175 ;
1176 [label="gini = 0.0\nsamples = 3\nvalue = [0, 3]"] ;
1120 -> 1176 ;
1177 [label="X[48] <= 199.0\ngini = 0.087\nsamples = 66\nvalue = [63, 3]"] ;
1087 -> 1177 ;
1178 [label="X[44] <= 24.5\ngini = 0.06\nsamples = 65\nvalue = [63, 2]"] ;
1177 -> 1178 ;
1179 [label="X[16] <= 0.5\ngini = 0.5\nsamples = 2\nvalue = [1, 1]"] ;
1178 -> 1179 ;
1180 [label="gini = 0.0\nsamples = 1\nvalue = [0, 1]"] ;
1179 -> 1180 ;
1181 [label="gini = 0.0\nsamples = 1\nvalue = [1, 0]"] ;
1179 -> 1181 ;
1182 [label="X[48] <= 174.0\ngini = 0.031\nsamples = 63\nvalue = [62, 1]"] ;
1178 -> 1182 ;
1183 [label="gini = 0.0\nsamples = 51\nvalue = [51, 0]"] ;
1182 -> 1183 ;
1184 [label="X[48] <= 175.5\ngini = 0.153\nsamples = 12\nvalue = [11, 1]"] ;
1182 -> 1184 ;
1185 [label="gini = 0.0\nsamples = 1\nvalue = [0, 1]"] ;
1184 -> 1185 ;
1186 [label="gini = 0.0\nsamples = 11\nvalue = [11, 0]"] ;
1184 -> 1186 ;
1187 [label="gini = 0.0\nsamples = 1\nvalue = [0, 1]"] ;
1177 -> 1187 ;
1188 [label="X[47] <= 20.5\ngini = 0.039\nsamples = 900\nvalue = [882, 18]"] ;
1064 -> 1188 ;
1189 [label="X[50] <= 356.0\ngini = 0.026\nsamples = 841\nvalue = [830, 11]"] ;
1188 -> 1189 ;
1190 [label="X[48] <= 204.5\ngini = 0.024\nsamples = 840\nvalue = [830, 10]"] ;
1189 -> 1190 ;
1191 [label="X[51] <= 5.5\ngini = 0.021\nsamples = 835\nvalue = [826, 9]"] ;
1190 -> 1191 ;
1192 [label="X[6] <= 0.5\ngini = 0.015\nsamples = 787\nvalue = [781, 6]"] ;
1191 -> 1192 ;
1193 [label="X[46] <= 1994.0\ngini = 0.013\nsamples = 767\nvalue = [762, 5]"] ;
1192 -> 1193 ;
1194 [label="X[51] <= 3.5\ngini = 0.006\nsamples = 636\nvalue = [634, 2]"] ;
1193 -> 1194 ;
1195 [label="X[4] <= 0.5\ngini = 0.003\nsamples = 608\nvalue = [607, 1]"] ;
1194 -> 1195 ;
1196 [label="gini = 0.0\nsamples = 492\nvalue = [492, 0]"] ;
1195 -> 1196 ;
1197 [label="X[45] <= 25.0\ngini = 0.017\nsamples = 116\nvalue = [115, 1]"] ;
1195 -> 1197 ;
1198 [label="X[44] <= 31.5\ngini = 0.083\nsamples = 23\nvalue = [22, 1]"] ;
1197 -> 1198 ;
1199 [label="gini = 0.0\nsamples = 15\nvalue = [15, 0]"] ;
1198 -> 1199 ;
1200 [label="X[46] <= 761.0\ngini = 0.219\nsamples = 8\nvalue = [7, 1]"] ;
1198 -> 1200 ;
1201 [label="gini = 0.0\nsamples = 5\nvalue = [5, 0]"] ;
1200 -> 1201 ;
1202 [label="X[46] <= 1251.0\ngini = 0.444\nsamples = 3\nvalue = [2, 1]"] ;
1200 -> 1202 ;
1203 [label="gini = 0.0\nsamples = 1\nvalue = [0, 1]"] ;
1202 -> 1203 ;
1204 [label="gini = 0.0\nsamples = 2\nvalue = [2, 0]"] ;
1202 -> 1204 ;
1205 [label="gini = 0.0\nsamples = 93\nvalue = [93, 0]"] ;
1197 -> 1205 ;
1206 [label="X[47] <= 8.5\ngini = 0.069\nsamples = 28\nvalue = [27, 1]"] ;
1194 -> 1206 ;
1207 [label="X[48] <= 160.5\ngini = 0.375\nsamples = 4\nvalue = [3, 1]"] ;
1206 -> 1207 ;
1208 [label="X[46] <= 268.0\ngini = 0.5\nsamples = 2\nvalue = [1, 1]"] ;
1207 -> 1208 ;
1209 [label="gini = 0.0\nsamples = 1\nvalue = [1, 0]"] ;
1208 -> 1209 ;
1210 [label="gini = 0.0\nsamples = 1\nvalue = [0, 1]"] ;
1208 -> 1210 ;
1211 [label="gini = 0.0\nsamples = 2\nvalue = [2, 0]"] ;
1207 -> 1211 ;
1212 [label="gini = 0.0\nsamples = 24\nvalue = [24, 0]"] ;
1206 -> 1212 ;
1213 [label="X[46] <= 1996.0\ngini = 0.045\nsamples = 131\nvalue = [128, 3]"] ;
1193 -> 1213 ;
1214 [label="gini = 0.0\nsamples = 1\nvalue = [0, 1]"] ;
1213 -> 1214 ;
1215 [label="X[47] <= 15.5\ngini = 0.03\nsamples = 130\nvalue = [128, 2]"] ;
1213 -> 1215 ;
1216 [label="X[47] <= 14.5\ngini = 0.121\nsamples = 31\nvalue = [29, 2]"] ;
1215 -> 1216 ;
1217 [label="gini = 0.0\nsamples = 24\nvalue = [24, 0]"] ;
1216 -> 1217 ;
1218 [label="X[46] <= 2796.5\ngini = 0.408\nsamples = 7\nvalue = [5, 2]"] ;
1216 -> 1218 ;
1219 [label="X[45] <= 45.0\ngini = 0.444\nsamples = 3\nvalue = [1, 2]"] ;
1218 -> 1219 ;
1220 [label="gini = 0.0\nsamples = 1\nvalue = [1, 0]"] ;
1219 -> 1220 ;
1221 [label="gini = 0.0\nsamples = 2\nvalue = [0, 2]"] ;
1219 -> 1221 ;
1222 [label="gini = 0.0\nsamples = 4\nvalue = [4, 0]"] ;
1218 -> 1222 ;
1223 [label="gini = 0.0\nsamples = 99\nvalue = [99, 0]"] ;
1215 -> 1223 ;
1224 [label="X[12] <= 0.5\ngini = 0.095\nsamples = 20\nvalue = [19, 1]"] ;
1192 -> 1224 ;
1225 [label="gini = 0.0\nsamples = 17\nvalue = [17, 0]"] ;
1224 -> 1225 ;
1226 [label="X[16] <= 0.5\ngini = 0.444\nsamples = 3\nvalue = [2, 1]"] ;
1224 -> 1226 ;
1227 [label="gini = 0.0\nsamples = 1\nvalue = [0, 1]"] ;
1226 -> 1227 ;
1228 [label="gini = 0.0\nsamples = 2\nvalue = [2, 0]"] ;
1226 -> 1228 ;
1229 [label="X[46] <= 3634.5\ngini = 0.117\nsamples = 48\nvalue = [45, 3]"] ;
1191 -> 1229 ;
1230 [label="X[44] <= 30.5\ngini = 0.048\nsamples = 41\nvalue = [40, 1]"] ;
1229 -> 1230 ;
1231 [label="X[13] <= 0.5\ngini = 0.444\nsamples = 3\nvalue = [2, 1]"] ;
1230 -> 1231 ;
